[{"model": 0, "layer": 0, "weights": [[-2.2105241163011507e-20, 2.2568944149835775e-08, 1.0054037651404901e-16, -5.673807643055398e-20, -2.6807859964196865e-18, 1.2158350909641413e-12, 1.7592332401264544e-19, 9.791458362349519e-05, 0.0004825466776549574, -5.99733383092726e-16, 2.9076269721864492e-06, 2.0060673497390483e-21, -1.2093720621179854e-18, 0.00022182024034830917, -0.00023894033727055918, -0.00016565541251935045, -0.0006459327272575809, 1.5749214376085054e-05, 1.4906726700156205e-06, 5.3473440479782485e-05, 0.0006329019914963036, 4.088340099871761e-06, -1.0068795833386222e-21, 1.6830747511122802e-06, -7.468774978429656e-05, 1.1059139158221824e-13, -3.556463376451157e-05, 0.0003329598581678156, -3.387935202027458e-21, -4.791933981805808e-18, -1.1097285316455451e-07, 1.2140510732467833e-06, 5.1136992830089663e-20, -1.2451423018860185e-18, -0.0006622129161254138, -1.124906565000331e-16, 1.3146275933045642e-15, 3.8531707874724614e-16, 0.0003267576749268324, 7.148752959775337e-10, -1.5570653015498782e-13, 2.719489167047769e-19, 4.307417100946661e-09, -0.0003010185022767524, 8.695817258366808e-11, 1.568245217709556e-10, -2.6315915756793403e-06, -5.5165030362556204e-05, -1.002622545909088e-09, 3.590611064695809e-14, -1.2252317726315193e-18, 2.4217646327885314e-20, 0.0007485813332028029, -0.00011488569672880292, -2.8263894906344204e-06, -1.955751235357363e-05, 7.232095715324484e-12, -2.400573420037545e-07, -1.4917126190338402e-20, -4.201451028575552e-07, -2.1217090298474502e-05, -9.251504303709783e-05, 1.4003983573390975e-11, -4.179005089560265e-05], [-0.0444195847237026, -0.021992206070720093, 0.14138695530370804, -0.0001300908610654484, 0.1553684754846977, -0.00013336338740723856, 0.30641197017356886, 0.03580659408968679, 0.20145600965997612, 0.0804125722496611, 0.04750878136237175, -0.11334192675755454, -0.11031918714482127, -7.080221936422881e-05, -0.1263413222978569, -0.17904904451480175, -0.016593411501584904, -0.05310019904426182, -0.11652606127689895, 0.18585513991286848, 0.08855049746712329, -0.12294980170317374, -0.0745430590786437, -0.14055055531841662, -0.02484527971224801, 0.14249716034125862, -0.046380721094769, 0.033096971535046676, -0.1865489227343004, 0.0789832999033438, -0.12177665328618806, -0.1847602054253592, 0.03722949873457696, -0.2330900204176068, 0.1285244078470806, -0.2495847045561775, 0.027458123200273188, -0.06422320416793646, 0.11447983099643158, 0.19865197651237926, -0.16130412444213352, 0.04185338128774022, 0.1381293228702889, -0.001598335392610858, -0.050034632798694384, 0.206898025068377, 0.011024231248566474, 0.08495807001310829, 0.12033826056829766, -0.14244214089177973, 0.12984052796260015, -1.5973524486453156e-16, 0.22670840532526254, -0.010635777104513721, 0.1810740988255286, 0.11011407698208257, 0.16082413084028063, 0.059126941286395375, 0.23999000280320873, 0.03381951012063093, -0.0948844060031806, -0.010183003688588361, -0.2081715381923899, -3.180822804304832e-09], [0.1565567995368838, -0.08462374943190609, 0.04317479515163918, -0.03410510768578235, -0.16179292281497282, -0.09638757217277774, 0.06709104405994665, 0.062239384200133724, 0.04147309224419885, 0.1085437900386389, 0.04133911016847092, 0.08093558276406397, 0.1628442032902157, 5.583293856556043e-14, -0.04280704511385408, 0.16092069864805011, 0.18861080677109726, 0.12992423723239846, -0.12472630038584467, 0.22648173049276035, 0.13760671863920143, 0.19764049245620707, -0.2013714124617254, 0.18575126558640923, -0.14590851339553113, 0.030723594817942054, -0.11500141153472493, 0.18030853219408233, 0.11513159089604542, 0.041353030144440445, -0.06340774708042522, -0.1913375123668568, 0.08634649063490771, -0.05404871494892972, 0.08170943545605629, 0.12827675407644573, 0.189012013104604, 0.14196157028175066, -0.1715186624988906, -0.043746825736768365, 0.06286381641347903, -0.1489020758783905, 0.061387082230821496, -0.2100558483404437, -0.06356178785990947, -0.20647503544498097, 0.1758111093869685, -0.24466329265432513, -0.04085680156730492, 0.14541617757712946, 0.06126280420453881, -0.000524530519953585, -0.11253239231466124, 0.015135465812730165, -0.02736745986218958, -0.012571184366762246, 0.24922707003175623, 0.11489340402608303, 0.05848284955804675, 0.01893175237094848, 0.0612094808664354, -0.12771111331595225, -0.06389152844555793, -0.011950983467933357], [-0.06734245920589019, 0.20866504518969367, 0.09974611700539732, -0.010901460805551334, -0.11596080194484651, -0.11740314339680304, -0.16626545280670438, -0.015834707420149995, -0.07002053088641143, 0.07261702425497085, -0.07571592503661607, -0.1252614897155824, -0.2208178326197116, -0.2058152337326492, 0.08164658921050622, -0.005769362902890744, 0.026970013109503123, 0.1918502625722768, 0.21979194623550882, -0.08131922814068022, 0.10041249416184397, -0.11922381080048759, -0.20014528624386735, 0.12595002062916463, -0.08112144309604383, -0.062095486691691314, 0.08452950046739253, 0.14403051505902326, 0.05225236618436895, 0.12215729040530103, -0.13589992285601474, 0.12736076774543564, -0.11898235326264818, 0.1584973736448437, 0.06694152257224484, -0.13627625838190746, 0.19255177793006764, 0.0920316491499762, -0.09706803714958513, -0.07422837226511847, -0.02357030005311891, -0.2102599670964006, -0.11495571714938646, -0.042257523528803805, -0.04304145358926482, -0.04021600731851995, -0.04675025551949803, 0.08048027132546613, 0.17556415872884218, -0.171993575057963, 0.014852973764796273, -0.1681618715489233, 0.09746704013083139, -0.06377131274058781, 0.016225559084366632, -0.0890431778071563, -0.10809199675081732, 0.04657585645761128, -0.03230565687523948, 0.17098055507555285, 0.10439787026893214, 0.12956893032307057, 0.1660180391178449, -0.02882823705232315], [0.08498011466178718, 0.052019345833035635, 0.19589224514901957, -0.09010701463057333, -0.12098537447160022, -0.18350349518676556, -0.17622285367759993, 0.2116168043748163, 0.07707975444160707, 0.11369906119656402, -0.122288494754631, 0.0521148238116042, -0.11418428013826944, -0.024619580957657605, 0.21516730016653876, 0.16554318498266915, -0.1188279881754096, 0.2016872436409178, -0.1168662772484063, 0.25410711725123764, 0.2285724184030368, 0.11382532621986712, 0.06802347288587192, 0.1199407317299291, -0.08695786525680976, 0.16476625219672872, 0.11368703076220583, -0.15377605250020718, -0.06561407760537717, -0.1821719794392171, 0.17636276144202348, 0.013592769556212745, 0.026735681517215174, 0.021788455762556364, -0.07093613048009484, -0.172064454062743, 0.16241570422893203, -0.09006504852043534, 0.005943144394702669, -0.1050735805541904, -0.21057457288640896, 0.15339965163860858, 0.22979817067305283, 0.19303666417729126, 0.18699824198914583, 0.09224731709140278, -0.05816526875225255, -0.11567775286793854, -0.017766393472060264, -0.11057513296204599, -0.13680073631293868, -0.20662860790246795, 0.08199744463782384, -0.22045118525738125, 0.1358240212724837, -0.12155666469219537, -0.219211493942602, -0.1338165432052012, 0.059679549390308784, -0.12597932596824876, -0.05305967453186918, 0.010730743581418222, 0.15082767379343665, -0.015904495764683068], [-0.050690060732521615, -0.13353612633615403, -0.20143737147386723, -0.09018240403994124, -0.13169287125902168, -0.013338731744574133, 0.19481506752348476, 0.10858495198785283, -0.10983824410468217, -0.037422885063374, -0.16096529705266854, 0.17322786118935338, -0.2038500146167587, 0.07405572573130025, 0.10628275591140686, 0.0749204352256218, -0.16744277530772914, -0.005302359940385754, 0.0856379439163902, -0.05174173449142802, 0.018288910575350474, -0.14604336283324718, -0.03492018362868311, -0.27640991748722393, 0.12560147081828466, -0.15694262496172998, 0.0713091071138343, -0.06500133170016428, 0.02500261626058758, 0.21213675373364022, 0.08540236146892141, -0.169132213330593, 0.019123220669111395, -0.02811751738873524, 0.003591326894641818, 0.06450372907098283, -0.0923378434199356, -0.08392442506434694, -0.02786056158227787, 0.2294356300023609, -0.12669346487632094, 0.1567753410942555, 0.0488768459247213, -0.01864041448053552, 0.20776571758553636, 0.0027026750504883118, 0.03215182097541143, -0.10437327312646709, 0.19777203972681853, 0.07017274660280833, 0.10374847255435664, -0.08829196144624536, 0.12929386528719594, 0.02232209899223186, -0.13149171746144686, -0.09116589481532436, 0.0885640264440422, 0.26946270284500184, -0.0714059089115819, 0.033840288389981855, 0.08952547216145333, -0.036116584720872404, 0.1778080332185471, -0.01479678499246642], [0.1629049646401887, 0.20416548882935898, 0.12248566709724042, -0.15286431789410243, 0.04001492476339734, -0.033850363095019605, -0.08698134196404879, -0.06170591307441566, -0.13322575445975876, 0.1682917122198675, -0.2469315347648453, 0.25663514835072715, -0.18737274205756294, -0.07150908805373374, -0.23430960059148584, -0.20802419297532843, -0.07272923991703674, 0.22954725887424307, -0.16947081142586523, 0.2221382073976114, 0.19918881401536032, -0.040015439484122534, -0.14971659312239205, -0.07143251048372364, 0.026962721255195752, -0.22424703948306682, -0.22424415419437518, 0.06362862777884994, -0.17742461721788563, -0.15474434800289583, -0.17895179588640447, -0.048390357957862264, -0.10516636108183369, -0.22904266860723738, -0.17736389157211271, 0.06564804401985143, 0.16233031772604192, 0.3115196201222705, -0.0312188843963005, -0.08788731545693299, 0.13705783273720568, -0.04860662426951661, 0.22596004628431562, -0.17185887120131865, 0.1356003270325005, -0.05877446469068106, -0.06580206428170551, -0.035685265703239356, -0.04722609972645571, 0.09034976979296555, 0.03749810023731689, -0.04317374760416548, 0.06853915880612006, -0.1321807552057651, -0.022409244174304017, 0.027316440863223834, -0.07365015967735386, 0.23431053730078363, 0.16912625540404902, -0.20829879259246964, -0.15000679451233925, -0.12270842077028463, 0.12134387301378567, 0.005638376001437351], [0.24583341000699352, 0.22114025188259007, -0.02687396532620743, 0.0007955561341702647, -0.07778871074028536, -0.00010403087328885209, 0.1716097661356521, -0.17582716382546598, 0.03413348913378195, -0.19433994759011214, 0.19377194624395677, 0.2469519405067934, -0.006192148132048869, 4.72760882238722e-15, -0.05715299313226621, 0.12303617993345053, -0.03706617286309587, -0.10179329190888406, 0.025924682438534387, -0.15996451920914992, 0.20712835957160913, -0.13736432903746285, 0.002487803607568338, 0.4405674428300893, 0.14147059075823543, 0.1425471616372361, 0.06406248798882903, 0.06095616082767171, 0.06014409470139215, 0.11730293938582086, 0.17786670499294832, -0.04795235402536051, -0.13542390879201602, -0.07934714951001129, -2.6554617982154697e-05, -0.0062577666349778365, -0.20081321406421912, 0.00580317434799975, -0.008968583815626405, 0.11212567635697614, 0.2238667845592232, -0.0010015979564966747, -0.051408686097805904, 0.06743254728456367, 0.0921513400821059, 0.007154867769513389, 0.04828057146718223, -0.0028238889806792146, -0.061472298733111254, -0.04903456441927169, -0.09788281027884384, -2.147052075000786e-22, -0.05933745823809383, -0.10817928698029432, -0.04573298787749162, 0.17757673405284502, -8.327486111277286e-11, 0.15148917342123555, 4.243874851330294e-05, -0.20476513944895977, -0.07032405332839547, 0.0230700196260663, -0.1808518084170132, 0.0015093315239624679], [0.19090992318560832, 0.11649076246318835, 0.09512158762050447, 1.49606475917661e-08, -0.1157373766127444, -2.04306410187811e-11, 0.04220981304386942, 0.22680049135008176, -0.030811443912976997, -0.09777560577546562, -0.1548632748674885, 0.07170258938657005, -0.0007969396578115235, 2.943220254416078e-14, 0.030084612995093452, 0.11651431111610185, -0.1818501750217456, 0.014940189680728242, -0.14142424260237946, -0.10765440752224349, -0.05261351327768057, -0.10719341102729707, -0.0002588804869563036, -0.0856068238391172, 0.026696386658226642, 0.13954514681625638, 0.02642523145360992, 0.05801591474952586, -0.2480037817242993, 2.578777603876568e-05, 0.09728790112325572, 0.12303262477395764, 0.0004745331676787317, -0.21728660227967794, 3.822263340692244e-09, 0.034972098105323035, 0.008728862735636223, -0.08067948921059709, 0.2063264114671727, -0.23316114343354785, 0.04901509205410491, -0.04919776310804184, 0.17019591631916753, -0.13638004444105908, -0.18139976395367743, -0.08789318784267297, -0.014527169233313568, 0.09305000008887057, 0.03879524124823656, -0.18587860258171135, 0.20782138987174306, 5.6323968958979014e-05, -0.03316433984320607, 0.2352768721144346, 0.09332230371575506, 0.3165152552168823, 1.4255136512059349e-05, 0.17806383753344224, 0.12407929878012075, -0.21215559964999692, -0.16577033904487012, -0.01873943010001023, 0.18041393457354898, -5.4689384794431716e-09], [-0.06900081261484087, 0.21776723423560423, -0.025340184875830982, 0.19223388038572398, -0.15523806632488263, 3.402193793663985e-11, -0.03780330352784912, -0.1730118808310874, 0.06405057998513244, -0.07543847106098947, -0.1362999327168752, -0.22337711216812908, -0.22025911573083773, 0.00014647715247615006, 0.08622675225019087, 0.13167092309971995, 0.06638516776306015, 0.09150698907882955, -0.006475965209357552, 0.2789583953979693, 0.004396106633559828, -0.03124177880638332, -0.1191552065401594, 0.21427607351924177, -0.15545427080319338, -0.05586580982425877, 0.13239235110420133, -0.2820356108907561, 0.02561458627886523, -0.04402756480388983, -0.14318287187925977, -0.175596754604973, 0.022927357810392793, -0.09047491341150264, -0.03299118876180815, -0.09769113917216302, 0.21435406172078877, -0.24143330552226022, -0.12963790988247192, -0.03113585956053979, -0.0009600300649342957, 0.07729050276004445, 0.004642303338646838, 0.19495512663747774, 0.006067914469106798, 0.07301108699101974, 0.09179299337160957, -0.008562834671345484, 0.20662553795267707, 0.1472465941805628, 0.17347474369178242, 0.0779075951330877, -0.02322614738032728, -0.16727243023205832, -0.08201125798953196, -0.12825873448149883, 0.04253232005749753, 0.05191146322261423, 0.17004516145617343, 0.18510481337323503, -0.1634814747828905, -0.18432928262917575, 0.011899767747297825, -0.012879210430936866], [0.2525948506168628, 0.2019913349952206, 0.21111451927146008, -0.048236960429693235, -0.057274022365868746, -0.16133393478006072, 0.03595368540623591, 0.0755580371610576, 0.164286914034545, -0.16637349695344306, 0.014766872264999373, 0.0788075786053607, -0.1993564245424361, -0.13883854119469854, 0.15737656389567256, -0.1793583258472884, 0.02431008997106349, -0.11668366370104832, 0.015885891047915688, 0.2598539689847437, -0.030684481158948833, 0.13864079320706982, -0.16629839755153392, -0.08480303604321701, -0.0409455576270226, -0.04064695491205512, 0.11462572501698531, -0.03317989179734756, 0.08009784523179056, 0.04585834043309092, -0.09833125247003505, -0.04281718783607207, 0.06578133631311513, -0.2237902232853439, 0.1255111754436723, 0.05623761842573684, 0.10664943359747292, -0.015725188377710524, -0.14110794790194464, -0.03273678484727104, -0.05466261151733376, -0.09740204550721271, -0.17694698899113204, 0.09258133684723693, -0.15001006103533457, -0.009011867958827677, 0.13502845643804637, 0.014713559883013915, 0.2243702684325869, -0.1728263252199255, 0.1526328259675919, -0.2105618183607197, -0.01642721389949962, -0.029408552989898622, 0.028869985986995566, -0.021979417964696223, -0.09709660427394873, -0.1630672107072582, 0.05059254375705001, 0.1307015115729943, -0.08882480914821683, -0.11269990379545905, -0.1867369119751631, -0.028951531634817958], [-0.03884210556048311, -0.1378620256100292, -0.09552857619809196, -0.19576266205335816, -0.18873991468465165, 0.14276652704934983, -0.10688093923870352, 0.029974004988161496, 0.1268649837906335, -0.03195560363093632, -0.18291089029001084, -0.12598814044930087, -0.009128401016837663, -0.008468324353748457, -0.06002242195543919, 0.11551276888429984, 0.15898932990234593, 0.18782981803861337, -0.19201076460364835, 0.1881034947002313, -0.03189623051943576, 0.14823442566599535, 0.07770122481071985, 0.18455506596641244, 0.11561123768604051, -0.049580137425261864, -0.0180225831956686, -0.025526147668823784, -0.06918345449477221, -0.11829516147178312, 0.006500888153941443, 0.07071851711389766, -0.08629344747850265, -0.02203463119912607, -0.1801965357105736, -0.1478213898989195, -0.19943266914403884, 0.24636861851353514, -0.2002522474851269, -0.09710077468640302, 0.06999084573130814, -0.18920119445906833, 0.191213525833237, 0.09096660862983022, 0.17535526422391537, -0.021625114073448845, -0.054887857219944436, 0.11096984217657815, 0.20393737260011155, 0.0026512759762447186, -0.10003093881125946, 0.15186678061800296, -0.05756854394413672, -0.23699879958829487, -0.09497531723408928, -0.03288616533998938, 0.18742337020246366, 0.019060560613546447, -0.009804758742367125, -0.09015340295784767, 0.14652936882089915, 0.24208982960899125, 0.201551046486567, -0.016340575554917913], [0.260467649433708, 0.16055501331169597, 0.08195926897723788, -0.1123522640478916, -0.14337933068111874, -0.15757370971514922, 0.21092003402223347, -0.08421628619362667, -0.01292287908382543, -0.014307938880371603, 0.051886678680019026, 0.12202158913250939, -0.11900342492315037, -0.044949022367531614, 0.16967642817120113, 0.1834915778285085, -0.19774564688350943, -0.15397242123586863, -0.07160715404588179, -0.15484596229184522, 0.03320278322119009, -0.18893865353556913, -0.00037455584646459367, -0.1072869812111659, 0.038858318695576974, -0.18045685983817314, 0.23736531432481237, 0.29446510177451873, -0.04848314904141285, -0.058434024905539464, -0.048691227768544426, 0.021881934206556423, -0.1678822198111266, 0.028529772093416318, -0.05262127284249225, -0.06738423580971509, 0.133213716501873, 0.05125338396851945, 0.20626223628647108, -0.032861108882220214, 0.16421125731795586, 0.136430386908735, -0.07937573893952066, 0.04502448652859916, -0.12375636614872605, 0.18015590199582804, -0.11665388138773375, -0.03205460979223355, -0.12388267888787415, -0.034590189323853174, 0.12418914940004346, -0.0018289638222585712, 0.01268409895238199, -0.246424067087371, -0.06652738337017154, -0.1655914111617697, -0.17780820429989078, 0.206421874008737, -0.07676992534994968, 0.13602286815322767, 0.16391443291571936, -0.11743479851682792, 0.03661424644243401, -0.025497990706049172], [0.1447700085069908, 0.06822766553410582, 0.12817641180308678, -0.00592691653096142, 0.14804388759714504, -0.20415373301832074, -0.08110686435970348, 0.1180281094736168, -0.05012657875609184, -0.1489923763048048, -0.15591642171685965, 0.10264419898908345, -0.04105130521244324, 0.15489379325034652, 0.12061703260187208, -0.01730637093406906, -0.13963093986980651, 0.04377449744118245, 0.20899107534322403, 0.1320384697378057, -0.13520080235966145, 0.07819452137413362, 0.18449691735754933, 0.1054718044608882, -0.12551876711365303, -0.00267072349372464, -0.09527738703233647, -0.001654520164683231, 0.1999028742423454, 0.23066075339648895, -0.028428078457979507, -0.04153749939735748, 0.047634499468197054, 0.16031333551169857, -0.16305321309951235, -0.11553992559131179, 0.21543099116575234, -0.07480750060754289, 0.182556491106413, -0.10471577687173533, 0.006287981252172017, -0.058315982738891936, -0.12881490996648087, -0.011384356514821371, -0.07169334662500769, -0.06797489811834752, 0.12293215310459553, 0.13327392237097133, 0.10342123665900274, -0.06937192155466167, 0.04181900347422588, 0.10780328059743867, 0.12079043869833157, -0.06836465790949842, 0.14879445187457235, 0.099796319678853, -0.18691593656337416, 0.13904953361516564, -0.007439137578489791, -0.008890214711958899, 0.010873537183983399, 0.07161262748806885, 0.045780243948223776, -0.015192182667016368], [0.22129482170470346, 0.13464977311192847, -0.025883710180757746, -0.041074447557670146, 0.12675880055395447, -0.0540274127400983, -0.13411355511823614, -0.1533013755693133, 0.11990578322049959, 0.19298064761300124, -0.08387983424151149, -0.11502878094926257, -0.24071675272589926, -0.1710259168186276, 0.17037172600560913, -0.1855904323466591, 0.15553884492465486, -0.12115324260035175, 0.16812417832049917, 0.1012116670022839, -0.023785754905215627, -0.08346124975788795, 0.11558022021107311, -0.017117315679795103, 0.0882795360606394, -0.005092731202537818, -0.018827604793858976, 0.23026601497258212, 0.024943959062709558, 0.06948767555044999, 0.06814960259991129, -0.15536518045650455, 0.12006853163957333, -0.15392535727408377, 0.16418314448732807, -0.14544354219703132, -0.001276374685375149, -0.19580737739747503, -0.017769566737389254, 0.16704292625995962, 0.03394612089586119, -0.17078847997684685, -0.10291339476457603, 0.1425476847053515, -0.25884551558611174, -0.11480556987495215, -0.26988680246192404, 0.0769725655916411, -0.036086904680740606, -0.06481559258242536, 0.0862708979350913, -0.0797447194458565, 0.0974822398272227, 0.12255124949045884, -0.03802963705006106, 0.200785455735671, -0.16120336847362665, -0.17489642063660638, -0.18069844131868726, -0.07638280158435938, 0.019599626251986357, 0.0031265180187385415, 0.12653046539547586, 0.0024570103541283026], [-0.07149883304142149, 0.11342566622040408, -0.09405704331503487, 2.3157225696268817e-20, -0.04080363958187688, -8.800454495042541e-10, -0.0330602552020818, 0.038463557737669025, -0.23914795406104852, 0.1397900551001983, 0.18442823905495134, -0.13158363360566755, 0.31555186626177323, -1.9780326527688435e-22, 0.248508911778482, -0.14447299947249886, 0.04141320384145812, -0.049701496500648236, -0.038675661729468326, 0.022583714802888295, 0.22295722639301238, 0.11407844648567324, 0.07550046425212777, 0.29936629962214517, 0.24244217192954087, -0.01989258985195775, 0.06546054975576761, 0.17704929728585472, -0.1692278212490022, 0.024868794697575834, -0.23386338452385702, -0.12268974224440593, -0.08155461637233075, 0.006588811663200163, 1.227074270044173e-07, -0.13457462031546727, -0.0065082209613716, 0.17141536655955883, -0.10088172443070424, 0.04568055320280324, 0.10006849859755237, -0.21826914421644578, 0.03364621657427354, 0.14996072252095347, -0.2253492110614139, 0.14871656955351825, 0.095074256583431, -0.0847209786306331, -0.1743959890768839, 0.18044487490965055, 0.08152736604140869, -9.987010600781978e-05, -0.03763582199774196, -0.06504647159625955, -0.20703122891264572, 0.013796744744169991, -5.369613228611403e-22, -0.1755321355004769, -1.2198682775586713e-17, 0.10087027531640788, -0.095883331544389, 0.069341507375595, 0.05676052959442072, 0.003506661143199987], [0.15120402474968525, 0.17321799688073516, 0.038470844649747385, -7.905882844422e-06, 0.21371073726379164, -5.447548851620467e-05, -0.05091612596828965, -0.14798582558800824, 0.16559239517617488, 0.000494056973713682, 0.14447646139879383, -3.5843314347899168e-12, -2.2346264755334496e-07, -1.0515585001010558e-07, -0.13164124898802024, -0.04275064237320562, -0.1580081014065348, -0.029391125734842545, 0.08538520761070657, 0.05825294720742214, -0.22793194540384065, -0.03699825183667743, 5.834765957716338e-12, 3.1903243303256424e-05, 0.0025530727063965584, 0.25192800817024147, -0.15489568247772917, -0.23723817378658563, -0.021164819649258163, -1.9918483631731414e-07, 0.18968460358213077, -0.06684839731123449, -1.7594162400909447e-09, 0.11279979672803986, 0.09626995513732321, 0.027143998747941676, 0.13679019505890114, -0.07579226802205828, -0.157905559272706, -0.24131529666433874, 0.060683737382827084, -0.16095213599383013, -0.1664730580690796, 0.2502057507771418, 0.1305493642339425, -0.18380449579776006, -0.2688341449959541, 0.11618351846794393, -0.14415716202513482, -0.1395657756838888, 0.11924342792482295, -9.618682182672531e-05, -0.12336341577117355, 0.0005946456726083717, 0.10764074367262205, 0.056439218068781646, -5.4147112364049885e-17, -0.2050948479236193, -0.1411277131887687, 0.18753184048886296, 0.13924436635186102, 0.08144247054579773, -0.21283987072443308, 5.9760646521229756e-09], [0.204431775695991, -0.01929185356882218, -0.09288568788772572, -0.16756216182648373, 0.09704317335824217, 0.16053909836131122, -0.14743645811981623, 0.14066002236314504, -0.2009376774126999, 0.2008431107164885, 0.12647427320157958, 0.013850583503766197, -0.10602297562910942, 0.00024066051817686927, -0.12047401544892167, 0.08939106087270672, 0.23026905178526177, 0.13339492304252842, -0.008346327097261198, -0.13329601329681284, -0.012286254856255166, -0.03939604124943885, -0.03704402889901792, -0.12746793192930636, -0.07135219898670825, -0.10202318024664778, 0.05572215229107973, -0.09946677082713365, 0.006404443634857993, -0.13752035208271865, 0.15282381386956131, 0.08898199592125898, 0.047061276078567166, 0.11526905332479984, 0.18820367204328092, -0.17317403142427823, 0.10096408012583208, 0.16886539793019226, 0.23706653490544685, 0.09269311936504589, -0.12870429905973368, 0.01750554321601778, -0.19759080521921485, -0.1302115638232208, 0.2244184176615936, -0.12615340439505343, 0.06392231179756179, -0.1301173310926951, 0.21302256473472606, 0.111458267330741, -0.08146857000337711, 0.11754133660825053, -0.19169141632363168, 0.01610088601539681, -0.03276448262216085, 0.0034358468896386663, -0.08159965270885759, 0.025152401823542444, -0.08120922794731386, -0.0048151026039184, -0.050034150538922344, 0.06700295980331904, -0.23621769082093738, -0.018161735696058473], [-0.011355984705251367, -0.1176473103370489, 0.12772636079471678, 0.19064052035341736, -0.08274321967470376, 0.13093358955753964, -0.14955144938856435, 0.08633996639515543, 0.140955895847752, -0.16401988036844506, 0.02400641239843283, 0.1906847585434352, -0.18446409342118916, -0.22272177973035237, 0.03072935014594757, -0.044427878568671746, 0.20061606565473278, 0.1772366487322064, -0.09347086629871842, -0.03471186414111329, -0.07128763852181136, 0.02533700828592606, 0.22727513087686937, 0.14002971087679353, -0.03579852455179581, -0.09208587947123953, 0.1414114045973853, -0.18687546308785719, 0.07590887035286771, 0.22447702847495676, 0.07978549823098728, -0.0649169727311638, -0.1320041696142892, -0.09274279831387183, 0.07507203421647417, 0.07768038711934647, 0.18989153436751843, 0.22793664133180386, 0.16719925471046812, 0.14683310926458654, -0.06979112448663308, -0.09893208639694293, -0.006180975994966104, 0.027105267500545455, 0.05262243964532838, -0.15954231952142145, -0.12905860321157603, 0.04049093799748899, -0.04212990156924833, 0.18785773158090013, 0.14168097324879006, 0.14490401733988145, -0.0029379352820570618, -0.031032377197941056, 0.06206957774095108, 0.18582731007045003, -0.12264761264702237, 0.14499915722858703, -0.2056130006971834, 0.12201051558071087, 0.12043200864726347, -0.12208431559568189, 0.03644271838014002, -0.017655567840291368], [-0.07732513971325923, -0.1560598473545285, 0.10121343558678368, 0.019076890769977775, 0.19800811490315895, 0.19676037954641407, 0.2482556425391344, -0.14097253151014325, 0.20428114463757605, -0.13388521135164244, -0.003371479202676555, 0.0787901317592315, -0.03987161486067532, 0.013246306850532498, -0.12972346572490284, -0.209624183048425, -0.19887428203223048, -0.06941996475282816, -0.23525631036195066, -0.06444155048793387, 0.023541436389470125, -0.05517796592391032, -0.16848933322437262, -0.15774339391857062, -0.06642638611588103, -0.09076245339195994, 0.1629404464302575, -0.22014315347735322, 0.12225388439014868, 0.08337412852494704, 0.09867910524582206, 0.07546820245877287, 0.1694703917807215, -0.07882970586497905, 0.11369727327713085, 0.020422543579503766, -0.03948950812387189, 0.23625856304606757, 0.07939754268426814, -0.16384498514720278, -0.051449096992726616, 0.1251175485775071, 0.12078668151740214, 0.18831755089108018, -0.19931303283140617, 0.1573054772270249, -0.07798873500136186, 0.0661576224204665, 0.19502889351178684, 0.19158203184856396, 0.10956874304438605, -0.07431368698606723, 0.15039426098366354, 0.04328132348471744, -0.03161681335784131, -0.06926055803842544, 0.14134398685514574, 0.021973756715745, 0.09028921767367609, 0.09433786218508391, 0.17205257609040478, -0.003200526968640176, 0.10487920933981769, -0.017423886592849207], [-0.005757163887437011, 0.1108406991575655, -0.22975233526671704, -0.1800587201272628, -0.11146626370635973, 0.1969902888394451, -0.16370048675562168, -0.04325639487065286, -0.20177576769330796, -0.0832360051343648, -0.04869499075416571, 0.13176827839065966, 0.13852219501728646, -0.06147285292122975, -0.1590313406043595, 0.13182751044451685, -0.035105651985406716, -0.09558858279884792, 0.2069866970360172, -0.16135799644084198, 0.20713841723220708, -0.10459056368531285, -0.0005073453165124407, 0.1640805036715795, 0.07991326612301652, 0.205474622965694, 0.13334884649644477, -0.14883125174277215, 0.17614855631350948, 0.18975669192858646, 0.1453723402394778, -0.10611994641670869, -0.060241848390463565, -0.17337432694645943, 0.12807885238346464, 0.07443650135412942, 0.209182374373268, 0.12167037645381007, 0.1537507711803359, 0.289048389365714, 0.020662176246305074, -0.14587423064617397, -0.2780101077659019, -0.07178214281674479, 0.12652993344316354, 0.19338969677525575, 0.20321429553297118, -0.28524737710719295, -0.24010718417860305, 0.16386046369735063, -0.026376081626498852, 0.011884602903779799, 0.2278219930641468, -0.06845069971168673, 0.0386217175266876, 0.0034104343026495907, 0.10489671841391397, 0.021345266725808425, -0.05750857679757557, -0.12626215737658888, -0.04561058583618133, 0.03960447493360185, 0.06532825203808157, -0.0017745952674903048], [0.1370446271554647, 0.10915931977626255, -0.16264541398849144, -0.0413419018938453, -0.05958811516302218, 0.06961824813828892, -0.17343702749016915, -0.1020527079134891, -0.049664177256913675, 0.12381625376879252, 0.12686082134917123, -0.20833357862469745, -0.17764505091451088, -0.0664514646470563, 0.1445394071535229, 0.12606443542664758, 0.02883393916740097, 0.1432436830735319, -0.04601152686533974, 0.01253499204296889, 0.05770082020480199, 0.10243527673075593, 0.20403751380850882, 0.008408252784412143, 0.17143064908469507, 0.045755057181849884, -0.01940450410125728, 0.13036089914991578, 0.19814258408566685, -0.17193775062851754, -0.08434719212864726, 0.1409224103196333, -0.1834796212522697, -0.04059896758651911, -0.13105086471085067, -0.08581100061603562, 0.15157139720150764, -0.2632662690296458, 0.1885512726586629, -0.06068405450603398, 0.007441652728066785, 0.029046815991987603, -0.0007025720433080566, -0.0012074876081970072, -0.2363318014986996, -0.11139585138696105, -0.1488102343964729, 0.012238041690220896, -0.06537691502834773, 0.2122488480397061, 0.22397139051590564, 0.03917878623297817, -0.009920393821468363, 0.25350788744199004, 0.1635970974450071, 0.14888123935325792, -0.1425659136906966, -0.07560504300549761, -0.14353203913837168, -0.03414770114210219, 0.27509659076555004, 0.2227034525774308, -0.1664797115326223, -0.01953937652817031], [0.1937718186826065, 0.02701248938679484, -0.18850105454703203, 0.08650613928914987, 0.05806612537281214, -6.714524468337254e-05, -0.18768680065284296, -0.2009650015230655, -0.08642178194981553, -0.16769054649643714, -0.06136240175887739, -0.023014528484877846, -0.15113889499791125, -0.1778040309946518, -0.11286338967128846, 0.007391310481262792, -0.19805508394307514, -0.12304459280904705, 0.054515047009027616, 0.2564877119370117, -0.02660942668141943, 0.1870767793864229, 0.04824611975385525, -0.05006685136159203, 0.0048495780804286475, -0.0898064240732734, -0.021576693988036865, 0.0761673638259666, 0.012243029680645537, 0.13466011733558153, 0.17320150557075792, 0.11501769485613951, -0.002715754708178357, -0.21479453427058803, -0.054355823374989815, 0.07579415370143786, -0.029331056626340404, -0.21521845462320133, 0.14933278112642642, 0.08882389183220164, 0.1003588260877208, 0.08112013566206754, 0.07305120983319023, 0.06312199569360198, 0.03822828227952352, 0.13641658063752685, -0.08994902159370151, 0.04749778622971722, 0.03110089301479419, 0.09613837103576366, 0.17856115921019142, -0.09522865861442593, 0.15310410803578836, 0.233001067713471, -0.0033821216075915154, 0.10188452902346663, 0.09539411179084928, 0.01187704692004792, -0.14293301281523693, -0.16862291969387974, 0.16779298755802907, 0.1218191009356954, -0.21195248446897455, 0.0021677001293315106], [0.010611119266911734, 0.17965521702287784, -0.03281024541757673, 3.7702269925884844e-21, 0.06808181059338914, -3.897113951038834e-05, 0.08299648011024158, 0.11975225645394012, -0.16319770686452012, -0.08845600429746382, -0.09848442854150015, 0.1939810505205755, 0.19610389649099713, 0.0004874243579111294, -0.07314781176870466, 0.13172812655131844, 0.0444557014733479, -0.09843202857200332, -0.026452895145641593, 0.029261548428461626, -0.053119077271850224, 0.15563273915076517, 0.18237367275412916, 0.22288842379347995, -0.04193481599036842, -0.12743477077069656, -0.26993432341600637, -0.17036163489826664, -0.07782158561971846, 0.07092481841307179, -0.0872720696043788, -0.06898831542668017, 0.16872195583085903, 0.07406431617664581, 3.894949866776864e-06, 0.036201855286564624, 0.269763495129599, 0.07685571905643691, -0.1376021650912697, -0.21452179470343982, -0.11130196579766995, 0.06488592202691836, 0.16455959734341968, -0.03974048733766073, 0.09616445598284394, 0.06562489378401579, -8.015267349715028e-10, 0.2694831328993135, 0.07907253593920723, 0.1101547833968366, 0.03340886326026042, 1.7072661007539862e-07, 0.050074190522551104, 0.19493906925327348, -0.14840763943321156, 0.0640127847727041, 9.14676993678009e-19, 0.18182883213587986, -0.1380554295502689, 0.000678041580228335, 0.1650686441373051, -0.17533642755481538, -0.058729828237414405, 7.293994679202946e-05], [0.17534805088225702, -0.08745947564347901, 0.1671724326919275, -1.700062137879316e-09, 0.08400247022440634, 6.554144666253154e-09, -0.26924251884026396, -0.039065227361988086, -0.0019263179456787617, -0.06680139567426933, 0.2825450224742508, 0.17815208031509303, 0.08160824238054663, 2.7621804149741728e-05, -0.039541977727331486, 0.21812354264638514, 0.3376303071189247, -0.0006516517114480447, -0.050132838166544645, 0.1616266991617342, -0.14044269527617753, -0.06690733633977247, 0.00019435026227488148, 0.00045691240039363434, 0.19807940877760652, 1.6200323738601825e-09, -0.3117866083100944, 1.2355506591508447e-21, -0.12594974359229738, -2.7392152558953043e-11, -0.07658734695632632, -0.047876188984921596, -0.05271208809551012, -0.022305193935925473, 0.030041468715144532, 0.20361814109367948, -0.050983520196364276, -0.12611118184981035, -0.18138743767888343, -0.34733267522138916, -1.7753678876291496e-07, 0.12413878269593015, 0.10188015135942041, -0.06339474057150465, 0.04900259985944797, 0.04962154107433936, 3.475229350812429e-08, 0.0006372770898493544, 0.2737750805227159, 0.006552711839836616, -8.725848666219401e-18, -0.0005015353312995281, 0.09368690413451426, -0.19839729760342095, 1.5664940406223328e-07, 0.2084059926435808, 2.7362177335145138e-14, -0.09250864294312984, -0.000124819842635206, 0.10485320102388414, 0.08002375130191614, 0.1750264105083612, 0.14381532207172254, -3.207885382385264e-05], [0.26095973435936043, -0.07458456966229705, -0.0888120409267715, 0.18693961599725717, 0.20552846928497862, -0.14013738845075885, 0.11146025338331007, -0.12923470913769275, 0.08736608095331597, 0.13466770107030887, 0.10228675635583125, -0.010009246578864817, -0.014859364444136517, -0.05391378158678878, 0.011237681624390688, 0.15817757616055628, 0.28544211736404057, -0.22666018135912483, -0.16529758771044142, -0.13802331659600367, -0.1565912156958772, -0.08151437199551224, 0.11510294954400119, -0.01490893754053614, 0.11245247461700668, 0.1721440582886907, 0.20436587988754856, 0.20894133595526213, 0.13447155685405135, 0.2717845441030639, -0.07434736322396493, 0.12914520882767003, -0.19331555281594867, -0.2442742954454596, -0.11086996523617733, -0.014694126750422474, 0.08717692131323826, -0.11159267848946036, 0.06995419148079006, 0.06150507210246047, -0.09427668017020312, -0.051867030301161084, 0.0619209646819254, -0.03145502267005476, 0.1262118175199301, 0.1340328963578425, 0.10528727478675942, -0.06701701778339743, 0.16861605477115998, -0.1856190613717578, -0.1291599094342782, -0.16142187084387874, -0.1605844138962284, 0.010018301661322147, 0.12789695563545692, -0.03278914530027132, 0.15624278754124787, -0.08050805021186416, 0.0720851581349283, 0.1602562173384442, 0.022203143246552093, -0.016610842194792027, 0.01912936861132097, -0.017725915693767337], [0.09640475855065846, -0.04531444843471948, -0.054514169522466425, 0.07733035714410372, -0.20934890527093647, -0.1559797910067768, 0.19723808612972651, 0.14345619874314802, -0.07135212281449928, -0.06992844123460118, 0.18487459827619157, 0.1450956847844274, 0.11849855698091075, -0.1344117309745918, -0.21029091760426086, -0.04978638115514403, 0.1298407625358727, 0.11485586594392509, 0.1243540455944578, -0.17647437470786806, -0.12306208255656698, -0.08192719582421862, -0.09609271226832854, 0.1646044305288391, 0.13088707726674986, 0.0131238012946196, 0.17585250568941746, -0.10263046088643196, 0.16082992322032658, -0.09758126959802223, -0.13540465898281898, 0.08751966279463957, -0.16082810258940317, -0.008967622450049862, -0.047103967046020837, 0.09688045536662193, 0.17303218303593973, 0.19209862667748384, 0.16159583605421993, -0.24435367208202888, -0.09151187784195516, -0.02537438684431871, 0.006094891683586029, -0.115224878027572, -0.10985724729567448, 0.15393839274794985, -0.12334781802094873, 0.013722079262023753, -0.17998098239575558, 0.15098905928009732, -0.159485039314587, -0.14205954402628035, -0.1350734527483749, 0.16513191498245397, -0.12239068849913598, 0.19488303803334409, 0.13970532557461932, 0.21123855603586061, -0.24531698906679916, -0.12403896396480657, 0.07311883505781434, -0.07705841064165322, -0.09998903001389771, -0.022463863751242038], [-0.049477090704376114, -0.02222731798556564, -0.18338811093528523, -0.08542174880967923, -0.06279424278908058, -0.21628297503324534, -0.02045762173680861, -0.112295107376845, -0.016508521119909355, 0.12337616825245427, 0.14341332838223445, -0.2288458442381862, 0.05880483828806734, 0.13231207068821146, -0.10587148933010934, 0.06950866471919101, 0.10289536719716731, 0.1626259713089181, -0.21265707317081048, -0.17945929481816575, -0.1661855432131779, -0.1119332077228457, 0.07380035562663546, -0.0043974384709730115, 0.07354176860659212, -0.07054397081311219, -0.10906239088911909, -0.081295175006922, 0.16658369888687766, 0.20477498050006382, -0.1048945905008303, 0.2047246686931403, -0.10665787212011642, 0.1254195048961667, -0.159155966972839, 0.057718021666949795, -0.16749629001792818, 0.20765198730606874, 0.12464711666026716, 0.17995674510301837, 0.04012918386425038, -0.035241793348238896, 0.09381479092541774, 0.014145906250473204, -0.027583940518024583, 0.09550658339634412, -0.22852504475309418, -0.1735839455142131, -0.042866096867018345, -0.07966997751335272, -0.29047262068057284, 0.1344864356250021, 0.10828044546552594, 0.011968889640807308, 0.20675851803305895, -0.041250267851721555, 0.1353755849816724, -0.055642841301276266, -0.0556290645896506, -0.14120932649324716, 0.0857501798967495, -0.09633399428175196, 0.14031252559828436, -0.016716376731580343], [-0.1965090056842321, 0.12181290733268996, 0.026971484591880698, 0.16746774130610745, 0.07707690435693633, 0.014958992014570774, 0.19218848127499427, -0.10174377228914984, 0.02108812370418867, -0.09618726745753242, 0.23409474421758372, -0.12912048202573884, -0.1893878366856698, -0.08498717047335141, 0.005473930441893477, -0.2772862277405128, -0.02354072193868582, 0.22398559510636332, 0.0858399107027743, 0.09133015511468523, 0.247098359348005, 0.1835539743077838, 0.1524836548550198, 0.08628565873879566, -0.007565315870002921, -0.21902716910698206, 0.10131341045093434, 0.26111746896705457, 0.13576543426667464, -0.10181583569558217, -0.1396485221927412, 0.18133957144347007, 0.11099851596717263, 0.1503108078666108, 0.14984927308180498, 0.008906598046235809, -0.131930737359644, -0.03779469274492261, -0.03485977713230461, 0.06728505591216372, -0.08127261703909996, 0.1422404109299134, 0.13816739913060458, -0.07451302814285311, 0.10480619054217545, -0.030409236752829197, 0.20613084287756106, -0.2549740545173854, 0.07460143366615159, 0.19097650329105822, -0.12047037593695237, -0.14090887843063268, 0.09017765113252312, 0.11657657775714797, -0.06400448291233105, 0.13463034006147281, -0.12493122838963402, 0.10786258579771503, -0.1299057874509197, -0.11457413903730007, -0.10495147811111546, -0.055204861910534246, 0.16045202315571716, -0.01999208739646355], [0.010952484100598403, 0.025352880712505837, 0.17531950689435158, -0.16345626087380366, 0.16729474934507818, -0.19173006943845508, 0.020110247572398977, -0.042607367548715254, -0.0981700988209167, -0.08990846196865875, -0.011696473414829638, 0.20563177241586425, 0.1887078487509932, -0.002886177061244481, 0.17540144160515936, 0.08277507955078868, -0.07308680976958698, -0.10674645420957982, -0.02187811240828917, 0.012796337452423865, -0.1880931982436405, -0.1675789474924775, 0.04409039802284599, -0.09165752500795439, 0.16669768488289233, -0.10078554676235904, -0.18536411943538397, -0.11917566260293089, 0.17952604811742387, -0.17444766835927505, -0.06824817719398726, 0.19792656324390653, -0.07614253042972316, 0.016617017602138857, 0.1227133141414563, 0.053272511465208394, 0.2227987279352975, 0.10274560855635194, -0.1385993380442867, -0.0062347872002372, 0.1414570294412109, 0.1026966252485854, -0.2051110929514067, 0.12514445594859844, 0.14907637988780936, 0.05893941642515427, 0.0129055207536673, -0.0013691419509568223, 0.05032039494933272, 0.10266702862748721, 0.1936882285217684, 0.03721447860715289, 0.11894688418308932, 0.09366244019164009, -0.2751566682179727, 0.05724687794594972, -0.14481427195823443, -0.05955808298835204, -0.10745495159181853, -0.10193917343753608, 0.03555606598215143, 0.06859324672503583, -0.10434649581115576, -0.004117654392867419], [-0.1170667750556233, 0.023387839253834464, -0.11815706142511705, -0.2089979534695304, 0.22586513210020862, 0.007888101839071406, -0.28931079137347054, 0.11321801424177075, 0.24314869566920158, -0.04050860276801715, -0.17948898213800912, -0.19640684975257705, 0.029272562688561522, 0.15244231746071665, -0.13681628373614194, 0.23073986159067006, -0.20413488977952426, -0.040341766943369224, 0.09554108406624427, -0.18934313264409947, 0.024321722464072017, 0.17649798752754817, -0.12759459849705884, 0.09463920203516017, 0.10348772749464087, -0.1326019873541094, -0.24085680232846138, -0.2260634472084374, -0.007491561590263167, 0.1732211957127692, 0.08741095812585996, 0.1092410671309788, 0.0466660637098596, -0.007191600874941699, -0.16815356878908197, 0.15564913635946923, 0.16483262610747076, 0.25517103667379, -0.08245853643771872, -0.23497484986874884, -0.1541833488935209, 0.16909803274866383, 0.14270681946212888, -0.1141934794628811, -0.028727236669284163, -0.08223466488124735, -0.14020504102829837, -0.10411865990171223, 0.23647153261916365, -0.050266462654798366, 0.1761918986001173, -0.1937726079458654, -0.1174521683024663, -0.14401670953503237, -0.2532318344947409, 0.07876758549862121, -0.17879645359382768, 0.07588969583097503, 0.08480880824181058, -0.14363319582485437, 0.2055273222747913, 0.11516339011454274, -0.05087598969208236, 0.002170479389618519], [0.08966728645691811, -0.14147189309444205, -0.05348721381345729, -1.9250823314426576e-13, 0.1031432683142554, 0.00012224725501739397, -0.06903089106057395, 0.14188334752047987, -0.1591782703890527, 0.07271404500859578, 0.07686327786118691, 0.15593407363736606, 0.19434542315558911, 1.6139211388795838e-21, -0.04206969321167327, 0.0017403461070053397, 0.2830288575246853, -0.06132950127940217, 0.0059784978886486964, -0.2019560017860417, 0.06964092887703116, -0.09792014360798582, -0.08023028421775735, 0.15477187653597085, -0.03891657064687668, -8.470251387176764e-18, -0.09364003215034006, -8.565057846578598e-08, -0.19256616708957097, -0.00045711164328783626, -0.08517515702058405, -0.1692037520940659, -0.03217443020515714, 0.09922289904620031, 4.256345070183786e-21, 0.16469069802829348, -0.09460363147853651, -0.07207727445804808, 0.0206146162214179, -0.08043474603097692, 0.05531439517204201, 0.04563479325860988, -0.03568366698885972, -0.2527232054178982, 0.19729010235263575, -0.10210748682280467, -9.378004121275832e-19, 0.1735642079160625, -0.17687671277946093, -0.22995818949667537, 0.030368177311876094, 5.312143474298676e-06, 0.01183987482078799, 0.07816298341282997, 0.15834311494783274, -0.0306386542237019, 4.5774869658487644e-17, -0.11306598528899763, -0.0212057252565468, 4.149435300904505e-08, -0.13900592395516267, 0.1585406967187752, -0.01834456628918569, -1.7724789842153052e-08], [9.147581371235026e-07, -0.00018177670283201264, 0.0005912579697312733, -0.00037598632913797753, 0.00026337687550813507, -2.470144333520741e-07, 4.813349132438903e-07, -0.0009053939946194477, -2.2556894997989883e-07, 2.80281073403029e-07, 1.2215202097335991e-20, -8.181070337857853e-05, -4.910457349720759e-16, 1.541725654951192e-14, -1.2214031088595224e-18, 1.0500464891934086e-10, 2.1070681208723263e-05, 1.206290202895555e-22, -7.348144922208097e-16, -3.486886540033986e-05, 5.242926154420829e-06, 1.9266159577830365e-08, 3.724281971243551e-17, -3.487195274769575e-22, 6.751990010904739e-11, -1.7280547480164635e-05, -0.0005707184239960941, -7.777116829117791e-10, -7.921838811210094e-17, -1.177726195937156e-21, 2.510049287462496e-09, 9.665276324589497e-06, -8.046880336321338e-22, -4.7078852164247254e-05, 2.9301878678884e-05, 1.238811909549933e-18, 1.5228326308626714e-07, 8.672612202611566e-09, 0.0005250191196465699, -8.695927882573365e-09, 9.221071303468056e-09, 5.5248437729097247e-14, -2.675311004692786e-16, -9.354469121868239e-07, -1.3096788922484438e-11, 0.00035829032488550943, -1.126049103516083e-08, -3.816914109625629e-07, 8.386109348190542e-18, -1.749725974815768e-07, 2.8328657806574234e-21, 1.6660723846444826e-05, -9.45480898807224e-07, 1.0321427230517685e-19, 1.1306665152380718e-15, -5.781802480181045e-20, 0.0005907178954422413, 5.951418318889188e-10, 1.523754958638259e-07, 0.0005130188968794605, -4.1209873144472985e-18, -8.241595753679161e-13, -0.0004181322262580451, -8.27959647085483e-06], [-0.09194704103536495, -0.1599140266320915, 0.13775703570235243, 0.005960428888172778, 0.08947915543785843, 0.12762131242695404, 0.0058668955435798795, -0.03217563626967367, 0.11801317073686665, -0.05899475536273664, -0.19963429505887956, -0.01918358871140548, 0.24559209837160814, -0.04901604091622979, -0.10096591466165176, 0.2242112123216551, 0.157962361571011, -0.08723352133222423, -0.11902867240277931, 0.07869398398226471, 0.15353195646300588, 0.16928463190488374, -0.10717620715039171, -0.19328570754100535, 0.13219289251805727, -0.0949448957233611, -0.19965752121286603, -0.23422386892808442, 0.09889617009418354, 0.1555233368262504, -0.16857672886205263, -0.08610741883241117, 0.10521607319798773, 0.0005371401269724322, 0.026676032309435764, -0.11675479276923748, 0.1654411476929336, 0.08854436292635989, 0.09537309368455978, 0.12964228151925813, -0.0413320692310049, 0.1610122642467973, -0.15069491909899288, -0.21709953897208745, 0.043903969244940236, -0.08596151963094038, -0.20113081000020996, -0.00025454426209244973, -0.04396935736631765, 0.05533110717498691, 0.0037581647260045785, 0.11106438635144257, 0.09963210927875277, 0.10485111565353553, 0.025078319831872614, 0.0040117948488130875, 0.1908830536946202, 0.06147542619844033, -0.220645379662907, 0.04116512829756394, -0.06234527173698126, 0.28918944792579254, -0.23649216406372836, -4.4278498900323533e-13], [0.11656920805406953, -0.08379333067435132, 0.20324121430213266, 0.14648006057089835, 0.19237390603091495, -0.2195225336465392, 0.1567728178532304, -0.0801918639138624, 0.15964058616837434, 0.04646387507279515, -0.038302442764380454, -0.17005065765667082, 0.09088376467619975, 0.044068234475541285, 0.18400420392016037, 0.012349880588974115, 0.23152319478983116, 0.1704961901677963, 0.08814469149446962, -0.03070572758245872, 0.010931121161520204, 0.1535814278566127, -0.21424444579009608, -0.2174982060402987, -0.15039610827509617, 0.14407749161159847, -0.09865003964545453, 0.12816295950983472, 0.027421413342750268, -0.024657146800116134, 0.020224376352474604, 0.052750326925281636, 0.21897460188056367, 0.01155683539983123, 0.04009071399371243, -0.2045513665173399, 0.18791710433713057, 0.08343208854436508, 0.14614351894478766, -0.2151720128756797, -0.01695293325999477, -0.1286998711947772, -0.052813357142165805, 0.12863832533591496, 0.03636920247422585, -0.01105419701903665, -0.320505542251319, 0.28886619292424265, 0.2131326547149158, -0.1452658275448549, -0.21962528336355772, -0.0006912766303969966, 0.20694714159699326, 0.15352325824071672, 0.03833699986088162, -0.003463290229324598, -0.05871027151953918, 0.2092775114638551, -0.06600601203240744, -0.14811958590870664, -0.15684452891994038, -0.03164128063402016, -0.17629988512239764, -0.009947731695728256], [0.26406482070558895, 0.15720123705163372, -0.18505487027800385, -0.22396840049789332, -0.10706305736324985, -0.06922970706040614, 0.1765294651387246, 0.24006559822452173, -0.08869486204997128, 0.0710369123320603, 0.18858186272618768, 0.03313031497462005, 0.08185134030511679, -0.19132909475655915, -0.05859588752214076, 0.1403628513019282, -0.15529155446080423, 0.21393554245917426, 0.11876292771768135, -0.01459090736187864, 0.011847888537615425, 0.0017531762870796044, 0.07347331209456902, 0.033948117212749575, -0.19176393046296514, 0.12093522825992781, 0.004329566806051484, 0.20410159163643785, -0.1032632246899364, -0.11575490863991636, -0.08003078786303552, 0.085480108554425, 0.18542124410230212, -0.1737391937670048, -0.10597047557223355, 0.01920108245403709, -0.01737200509201876, 0.005076059184579705, 0.16929437432067537, 0.2526420727919123, 0.04407948105828044, 0.06886416128766906, 0.18597270227696347, -0.0088954626791984, -0.10659791655069217, 0.0413323816682878, -0.01970238333049345, 0.17385216677956586, -0.20070467311674192, 0.17102070468534267, 0.008913561991236486, -0.2189912541093596, -0.04794284237990274, 0.08284430952180703, 0.04830215134124743, 0.26736899718272666, -0.007040014550532182, -0.0231622053627406, 0.1433530833644167, 0.0024299858195387268, 0.03192347364411096, 0.14711191629499404, 0.054081748856532594, -0.015861171887197757], [-0.09155598516278689, 0.11413641526228352, 0.1727882295906861, -0.047640229700757646, 0.15181178780433022, -0.010041874876870664, 0.10254628927851811, 0.1293808318152224, 0.007995692356706099, -0.1984755164413895, 0.2041005327477884, -0.1463106197773311, 0.1329951968366561, -0.006686078625329808, 0.0009668474745031924, -0.15426541633743207, 0.14930488977129766, -0.0996351965660173, 0.27897160026771867, 0.16700598282376838, 0.07315370201256749, -0.04933469300654202, -0.09918145683196074, 0.04077416738967438, 0.16330459908840494, -0.16504578040171672, 0.044700703157210614, -0.12380757546258725, -0.07647226196700395, -0.13581113936486272, 0.23539997922850234, 0.06591760875006517, 0.11736148886240587, -0.2272024575834891, -0.06815471869657935, 0.16059627930148784, -0.1790744149124133, -0.15504704771396816, 0.08964340394612859, 0.10467602910563967, 0.16128061884706743, 0.19516106768608832, -0.13463565801595673, -0.11434314496659417, -0.012689141641580914, -0.18366352900488486, -0.17139731046548565, -0.17711319853380356, -0.012234858834628022, -0.11700694085317465, 0.20926779879782134, -0.08893246774633864, 0.211380074981191, 0.18124817793430953, -0.03417923179415338, -0.05699760644787436, -0.062108575516057786, 0.19913091674341712, -0.15354845233542785, -0.07891961783447554, -0.03324508016601888, 0.048061795773310614, 0.1917209263655484, -0.01720873857020235], [-0.0742224933350185, -0.10805030975881329, -0.05365476751928066, -0.17895947083136773, -0.0730446235365874, 0.15700913573561306, -0.04981597296679886, -0.07328866280409205, 0.1895604566799804, 0.07366588171780243, -0.029133921307123598, 0.13518262774318596, -0.09716096192618269, -0.027799360781146264, -0.16466867298683155, -0.06450666619613096, -0.03725765990192847, -0.08372132110334167, -0.0412220721720755, 0.19684192146026291, 0.05336291288226245, -0.029770057709028845, 0.13002957265521015, 0.11166118072967712, 0.13410935761358547, -0.12860589554277316, -0.004391555194457277, -0.0848857057757961, -0.13051348459803386, -0.00035832445023637166, 0.16715665851991462, 0.054648328788828346, 0.2074786607967415, 0.10091292731776196, -0.2130594576237698, 0.03736548940116023, 0.04289099668437908, 0.1874780869855765, -0.2047162003662933, -0.002743402485089677, -0.11964014978305412, -0.18622138424221088, 0.03365255742725775, 0.12284701693238838, 0.15472995334130676, -0.20303676745338184, -0.10798290627139055, -0.09973659902074475, -0.10981501793846292, -0.12962151383576467, -0.13292966801371503, -0.08343313360883454, -0.07412965049648257, 0.15984918343852503, -0.1438946639389489, 0.2167950621787855, -0.20763570260851993, 0.12026556549677303, -0.26337418407732743, -0.02765390556287333, -0.21097720324082125, 0.1516216369483311, 0.19576858107235373, -0.002330528321373363], [0.18570540775487937, 0.0909147682054971, -0.020088517547498994, 0.17273804587249725, -0.07016180424168106, -0.048467734745022806, -0.08467680594056283, 0.0744987631153692, -0.18538560928129777, -0.030987922157935895, 0.018682823439322323, 0.1820801011115255, -0.07481401488129544, 0.09602176367526835, 0.07632120082943274, 0.08723050221863297, 0.2087622963761169, -0.21681510136188434, 0.0622098549313116, -0.005349972871982395, 0.2843340548366591, -0.09286986741906833, 0.025235369538854083, -0.01738461162602929, 0.19259647242251882, -0.1275229435544724, -0.22143567809020845, 0.11234665524459088, -0.06280770512471917, 0.03823987962238935, -0.1697552555913681, 0.16442353211790925, 0.23116467945121244, 0.011178455103221666, -0.21729847669338534, -0.0553788336925213, 0.2201761108749985, 0.1521264000834303, -0.1780542299283587, -0.13935503370634852, 0.1868003290344957, 0.009086976549206267, -0.11728243867216696, 0.023247193746604368, -0.04147437174595948, -0.2214981800751079, -0.0665145387223188, 0.10266479361407119, -0.18443963998329835, 0.020831386247881695, -0.00835365751847013, 0.11400792509160809, -0.11069174556056062, -0.029585545260521633, 0.04574198682300163, 0.21415351364254925, -0.11231902125813087, 0.04730433514766677, 0.08035802816792004, -0.195326185326183, 0.06841526666578839, -0.034888806935895356, 0.09934014251431368, 4.230096073368085e-09], [6.921264342056918e-09, 4.802376442793102e-08, -6.11386256906543e-06, 4.087614931158676e-11, 2.9975130558133244e-05, -7.082207694621339e-07, 4.917964559734128e-07, -5.665047239321747e-14, 0.0004100066212810977, -1.5035693869036323e-07, -2.4899331491355602e-05, -1.4825314788217507e-09, -1.7589245888590963e-07, 4.5347502604305237e-07, 9.368961011112896e-08, 1.361157217085658e-10, -1.96566274072317e-06, 4.177688911718861e-05, 0.0004216562451118611, 1.0190197602717952e-20, 3.07367860348975e-12, -1.7119278535880322e-23, -2.5127332346236027e-08, -2.0096574943794187e-08, -1.2738000705395767e-09, -6.301980940120561e-06, 0.000126970913250005, 3.7581397545494006e-05, -2.2135517078646498e-21, 5.650457794284533e-14, 0.0002966767350836425, -1.4503690630688424e-06, 1.5305509735130624e-19, -0.00033864843537179763, -6.209485851807374e-06, 2.092801130540153e-16, 4.0942341279870476e-11, 8.052056579190941e-18, 5.283042791914459e-05, 0.0008141333761945637, 6.854967023270655e-07, -1.5472435497696736e-20, 1.6516414081381826e-05, -7.042559774767887e-05, 8.55722195989192e-10, -2.7611555280931904e-22, -1.0549233694544825e-05, 0.0005720698471453207, -3.677430513402271e-11, 1.0601601942891182e-15, 6.844320842651367e-05, -1.746245590350064e-22, -8.13985712041541e-05, 9.310124677555322e-06, -1.5674649768407742e-12, 0.0006838336087566335, 7.912856382439152e-05, 3.211304945915693e-05, -6.172816974072398e-13, 4.6167054256098985e-07, 0.0007231095605135379, -3.2236218860270882e-21, -3.0537711757895872e-21, -0.0007109554893358868], [0.08801236741666275, 0.14484823177214148, -0.1130854913626231, -1.0525879586592765e-09, -0.005789588696369301, -0.00023352447211636028, -0.22867791794101408, -0.023965340375533772, -0.10568722680644975, -0.011246188140198635, 0.008958485097181917, 0.2086024798597211, 0.22855951397942062, -3.9839881329606675e-05, 0.15861347893765454, -0.21889503858602655, 0.000514647323272104, -0.1153747711347512, -0.03970387719683791, 0.10236240958165037, 0.01489170868173207, 0.12298078198789192, -0.03986399938616, 0.00032072620480824807, 0.04767509046026151, 4.667168170320767e-06, -0.07777812092369558, -9.21220283705848e-12, -0.05488733802757117, 1.571474246328675e-17, -0.15457119207939438, -0.005262269023520628, -0.19552591386526633, 0.16786592592107766, -0.0002909950351421891, -0.03239130424412432, -0.050228362327245896, -0.16268912270115743, 0.14106754231033994, 0.04762605783238758, -0.16390036765263216, 0.0738433720072825, 0.1326837918790285, 0.11883554382302415, -0.13126713587337116, 0.08333575877109513, 2.4245809723170498e-08, 0.06953360032513109, -0.02883794400030181, -0.02421760536941571, 0.0004958204911411588, 3.628200029261409e-06, 0.009951777158636618, -0.08263769991669076, 0.1579304073053933, -0.011653950394748673, -0.00014499784537023503, -0.0012303003473196344, 0.16438406295188168, -7.462091909675188e-20, -0.20276108350193173, 0.0159207438910692, 0.1960128622670416, 8.775521510493879e-06], [0.028754758821624413, 0.14174131964469847, 0.13210832453094798, -0.005222572941907526, 0.07364906516435568, 0.08822083340142094, 0.06945763094842376, -0.17490665820143567, 0.14169459556429376, -0.022698433676441872, 0.13884966281256514, 0.053061617448965336, 0.1330665971269182, -0.15925232134578593, -0.04313358284610869, -0.16105256767855686, 0.10855834192998431, 0.19465684052678545, 0.13027053252974105, -0.08612547630239933, 0.1136744736508148, -0.09224507017888474, 0.05441061408491386, -0.07982088540791338, 0.17031575161197743, -0.017728054234266922, 0.15184725671952565, -0.06575335605139684, -0.20988738517446098, -0.11684760611519109, 0.22511658499749002, -0.1603887632131657, -0.07477041674860077, -0.138010827938719, 0.17866181225751587, 0.055048682810618796, 0.05345863597759288, 0.020158765556313643, -0.012859699195449922, -0.03272653528329125, -0.0430848589785504, -0.08781972233505943, 0.06725648339736211, -0.05454508464794352, 0.11774803762888834, -0.02014317746834238, -0.009722308158841956, 0.04300122991345587, -0.008849536332100205, 0.16380709792374384, 0.09838146638289695, 0.1323934645798486, 0.12193184000606493, -0.06204217028301898, 0.05763755119537589, 0.10501407035521534, 0.11841327365220715, 0.1662759896274634, -0.10355433274284581, -0.07423827592784601, 0.24041990014300824, 0.13717485457776055, -0.15773299936556373, 8.149712761399888e-13], [0.1399307001717054, -0.06364403960047794, -0.00326462107177304, 0.023989630200004, 0.007358433845371413, 0.0979601090623397, -0.0579127995514318, 0.016374977027458878, -0.04523631035353764, 0.033691799380152224, 0.1303186941100523, -0.18685868110774853, -0.07028357052414458, 0.05741363999690803, 0.09637881422408805, 0.011684417823103662, 0.22978210928146953, -0.02332507838926673, -0.11152061595311383, -0.026481319059825925, 0.03345466588673678, 0.02659264484878349, -0.008230350325556794, 0.17195286284842284, -0.14560174513595467, -0.13430496928371413, -0.24507748580360414, -0.2780363654506343, 0.007654684043139381, 0.041880499516130765, -0.12460873029591212, -0.06029219856429984, -0.026824324962661846, -0.037023236534386064, 0.11796792584722683, -0.023997128914041942, 0.09510868469342865, -0.06844192528978042, 0.06884280635143103, 0.10597942438903328, -0.10710963577512411, -0.058140344802961395, 0.09481743733048477, -0.12626961363437708, 0.06639998317655289, -0.17117222430763643, 0.1481825774504284, 0.06649360443930535, -0.048445545098762754, -0.21682452556077675, -0.05477633054578482, 0.057223355434823486, -0.2062623757281267, -0.11290527197808227, 0.19379182970391234, 0.1499529088854337, -0.11581644981895434, -0.14250594999321298, 0.1565171013851724, -0.09750823364373798, -0.13864747820787987, 0.32354940290980605, -0.10253596299884436, -0.020017344217893782], [0.032647562120710266, 0.040714403089935264, 0.20098919810828972, -0.16609604978703385, -0.18525850102090416, -0.1878369189692676, 0.3126053374256673, -0.051007448526676775, -0.11365758984915121, 0.03715661629073158, 0.04802688251396881, -0.13196392838673746, 0.13104333671551174, -0.07884604942418404, -0.12525306995465665, -0.03911552987905826, -0.034781998217605116, -0.07815204601754545, 0.25845757065291514, -0.1825942980355692, -0.056428896308743946, -0.06614129846048616, -0.1470771811668959, -0.04178059955600569, 0.15163401705327575, -0.01957832900028551, -0.25303157188225867, -0.0530101618259293, -0.2153785903607909, -0.13188934231528107, 0.17400915500441186, -0.14846343330878478, 0.07326291287839069, -0.025593245391668046, -0.1666305600170866, 0.05942545398170451, 0.1417385306788861, -0.09197714169062508, 0.1620525515656214, 0.052349745931678786, 0.17993291964773206, -0.17822612383375822, -0.009842531712733136, 0.06523062839647971, -0.22581674650844366, 0.1463707934260026, 0.24689836357725187, 0.03776245504987767, 0.008672494272068308, -0.1270282953312721, -0.09881656155144869, -0.14794410230623847, 0.19655994437095103, 0.12233289140859675, -0.06277887568954801, 0.2857045163949388, -0.03831591314957892, -0.018728625606514445, -0.08430644817916125, 0.14894564477186167, 0.20425292555059366, -0.021034455830785063, 0.04599156593887301, -0.0180107664758348], [-0.051349796780272204, 0.005636226687820439, 0.027692139608489368, -0.1724130988398474, 0.11276776755087871, -0.012738658417925694, -0.04631787702043615, 0.055841715891073194, 0.13652549639337444, -0.08116278102101428, 0.088034976261394, 0.028440889479118277, 0.22707489621490243, 0.10473574671833868, -0.06280537366964865, -0.2129775623948923, 0.13487895149719054, -0.10681793883249169, -0.07494910292088669, 0.1830420245901908, 0.2331559478001023, -0.11416174433577866, -0.09616616628609548, -0.13553762817931542, 0.015051658265082968, 0.11297239438593182, 0.07137528861320383, 0.15775905775890567, -0.13371589599864525, 0.1005934046261905, 0.23428060909247828, -0.08150169041729932, 0.08201376757188099, -0.08310266433982379, -0.09783402306123784, 0.20114722469227192, -0.07610116093409011, -0.06113979869687918, -0.023832716910523043, -0.06882642559999932, 0.103713740067254, 0.20091466402094293, 0.17458250305082884, 0.17682031026424788, -0.06489243567878313, 0.11478850144849478, -0.14275496349741484, -0.14242711143463185, -0.04421180380604395, 0.05574080649091438, -0.07833261418467842, 0.1431847047700727, 0.12769648414687593, -0.15767428268944192, -0.10673597713649302, 0.21630151640977235, -0.058582610816891756, -0.008621156418890689, -0.13000336913310243, 0.11766535958660852, -0.2307654209074298, -0.15182683802954802, 0.021248273583547948, -0.015570585584720945], [0.11518126269240833, -0.11175023645836232, 0.18316623159202847, 0.10611887725949816, -0.20386407798784983, 0.11007315523308832, 0.22926714590283614, 0.23883769894574, 0.09732697408244778, -0.18673371475533818, 0.009348083668504866, -0.12343666623217102, 0.2387624462786638, 0.08110887361364258, 0.05946851102882444, 0.13425268019529543, 0.06781300266431395, -0.08449285256264431, 0.13850785199137539, -0.019953211194875385, -0.11225722095587552, -0.05664592734358144, 0.12182397603599339, 0.04462993681492896, 0.19411250517682066, -0.21418895024502196, 0.19663026839941752, -0.0006147802269396464, -0.000309899291004452, -0.00036631405193586264, -0.11871872700805249, -0.08505167449099611, 0.09318622907706765, -0.23605129993276483, -0.17057876314302253, -0.20176316459618632, 0.16845860105295302, 0.04430995140358806, -0.15125988611303204, 0.13840604168828505, 0.23088017226811258, 0.19423952591825128, 0.19428221440188032, -0.22148014942564218, 0.0686623592451879, -0.1385616708189599, -0.07121329083817309, -0.017160487253706457, -0.1205169012850909, -0.006407403501276734, -0.042696979059218404, 0.19838874696270128, -0.18872649133616062, -0.09902302190285639, 0.1569314362253267, 0.052367667442922934, 0.12635643158595494, 0.04322317411407572, 0.046499519525634116, -0.003488458297739527, -0.12304071744434962, 0.1387937224156296, 0.03867849915029667, 0.0006026189266831483], [0.09125728472779052, 0.1679557958738477, -0.02895203837830902, -0.09703649772293396, -0.1817933379179779, 0.05731959929054633, 0.27143778211958136, -0.10145112773257733, -0.012754656095464764, -0.19739118746300205, -0.23118654501857047, 0.08726093406726114, 0.2510047782325963, -0.08126969631453831, 0.13641470884818557, -0.13195782491091176, 0.03609289144243751, 0.13978591245757116, -0.028627290298020504, 0.119451102586101, -0.042067818683881236, -0.1758540144981805, -0.18346022144075225, 0.15337565168987827, -0.15576978513646111, 0.12575828437143097, -0.08036036413834068, 0.18791152697257082, -0.07480110397621868, -0.06625851420691713, -0.18229428872045492, -0.12027008047003161, 0.042855467963459945, 0.09497393453940994, -0.03343878825580982, 0.19669815894412107, 0.02951131154350896, -0.17778893574587232, -0.08093997063555722, 0.05494946462679677, -0.10998912495703564, 0.11914994194489159, 0.07039780540330251, -0.27406990636213535, 0.19932970773078518, -0.029913272360563972, -0.21660320261296756, 0.09497955057476572, -0.0750803530703606, 0.18453640133087038, -0.10484675171720846, 0.17802170340645795, 0.011646690014970845, -0.12579418898510675, 0.16933578072411154, 0.09146754933578527, -0.12194754686946994, -0.06776944857808323, 0.08675119787112279, 0.14432762163439428, 0.07878955328065738, -0.12644262345647073, 0.1528261378529578, -0.0003111619887935348], [-0.12716019602213655, 0.07193178665360617, -0.0812581777162626, 1.4704920644702798e-16, -0.07662007740903497, 1.179108966074785e-18, -0.03281077428171482, -0.11106910334263491, 0.002360252366480034, 0.18551686955142918, 0.026190391043692515, -0.06005945396175711, 0.2405536773501278, -1.168600277403071e-15, 0.02325232751769466, 0.05946247659682737, 0.3489381821496087, 0.11332307248296304, -0.09721984155205562, -0.19533018096609958, 0.08240431957385673, 0.16020448378100746, 0.005333028180799132, 0.06943222578475403, -0.15184715223861606, -0.11018523087861759, -0.2278554248091412, -0.0553743610240246, -0.2284863375307452, 0.00509637006647202, -0.16825679644182487, 0.111923716865549, 0.04272256373942745, -0.06816568576509052, 0.1352102626005291, -0.05762648422548009, -0.10367980778136546, 0.12421269209856359, -0.016237743219221813, -0.15205447419516646, -0.17857010960167935, -0.02849719382823502, -0.0036341509767471554, -0.17891082405599656, 0.10806589218039675, 0.173646152064837, 0.2304220126339153, 0.13276756302919476, 0.07216808268059344, 0.08891637981116693, -0.03735951957201584, -9.87201239078512e-14, -0.22785556798729248, 0.05676002856394509, 0.2506877207683765, -0.01739242206321494, 0.08045954803964094, 1.0903657525524928e-15, 0.10126043962646565, -0.03491063929170323, 0.00628408571271086, 0.0542999414544128, -0.19232287984414678, 3.032185132412715e-20], [-0.010552245666124505, -0.03767749301824325, 0.16775778275373227, -2.4831849108541663e-16, -0.13459834646194255, -0.05381169934764351, -0.09758170902640763, 0.11502510938720722, 0.12106578372066491, -0.10362136586762385, 0.16548633512586755, -0.07585025362501173, 0.018700937917173473, -0.0002101483100060667, -0.15182209765360147, 0.05525580668362678, 0.18106179631129188, 0.04796451317632688, 0.1764892638715633, 0.1031977378765509, 0.11824404695346029, 0.19720139984961482, 0.17384637743999665, -0.08955997246929696, 0.19404517683550582, 2.5396213109734644e-09, -0.03949748374831543, -0.00021024758991767482, -0.1361722375219652, 3.749735019728239e-06, -0.08698963892639719, 0.23037745729002637, 0.06654705370108076, -0.014083320717362503, -1.1939689443812707e-18, 0.040658447950259115, 0.20675320090702426, -0.1368346453804923, -0.08730918415993733, 0.07388543750725923, -0.19532894926138178, 0.15361022563545082, -0.07024772745832313, -0.1624264629187019, -0.13856482006130647, 0.05203807403360572, 0.21362319545698072, -0.1004106645486532, 0.1487803019388506, 0.14213358062877948, -0.13441556064969823, -4.909344583628496e-19, -0.01213118413931144, -0.1238726117592868, -0.10616932714902888, 0.002603904868304192, -0.0003850725078541194, -0.09860098037758806, -0.12735884069541734, -0.045896396279629055, 0.10502081020680054, 0.11959788581424863, -0.16769257148287067, 3.348715983181618e-07], [0.03063423128976465, 0.20389627601032045, 0.16929053924199947, -0.16729868034774434, -0.1699952484609267, 0.1200578239363967, -0.209696519340069, -0.10701977772384538, 0.17588088302679344, 0.23149400532566278, -0.030495188002045953, 0.10054255192677464, 0.318516177183486, 0.02698892098002996, 0.04830585194923096, -0.008743378195977841, -0.2247288154202044, 0.07325162336210596, -0.16141178637273743, -0.0792125994526618, 0.05417248909825373, 0.0736951477757626, 0.12030752497693185, 0.13717781711420665, 0.13720756417660854, -0.10368917530016705, -0.09414943767010514, -0.08254043776746259, -0.13182534387976477, 0.14952961472579815, 0.10049155209526602, 0.16182453925090354, -0.09050860288620749, 0.0073103627965560355, 0.1200503055243931, -0.0950124307215386, 0.09709845034376487, -0.22264349142481707, 0.04247768995625427, -0.10437726226704043, 0.03140689683401468, -0.06453789895865644, -0.09454711789709778, -0.11036706240045457, -0.04594979604019638, -0.036552247744843655, -0.041288655605732395, -0.029766238607519625, 0.07123906928867388, -0.0033824679667950816, -0.20028496375387753, 0.02217676582200463, -0.1682104878926952, -0.17832784557779663, -0.07697797349680313, -0.13700634820579174, 0.07141669564405885, 0.1845141121721363, 0.14838435682436832, 0.1060103203842795, 0.21242813577041608, -0.015299296309254903, -0.001545972757130049, 7.233766231313044e-13], [0.20150081549540433, -0.04435213353730019, 0.1256086823197434, 0.058066506748697504, -0.06383619704254727, -0.22040982697115968, -0.060162585458212035, 0.1258008842618452, 0.05907772562832612, -0.1140674174004477, -0.034377760038168496, 0.051721459253020435, -0.14796322205341833, -0.04937723727724096, -0.028986724316977897, 0.042198574118195525, -0.003704314277183166, -0.059344239764050996, 0.12107118817029043, -0.16040797448477354, -0.20319409667469493, -0.046592211178396715, 0.2107509085534776, -0.12579123406779924, -0.15157361521861595, 0.20842752215721985, -0.1345006215033839, -0.07962905720276472, 0.0815138346798985, -0.11665081781388754, -0.15735209465792316, -0.07038625152189576, 0.07460744360795277, 0.15150341931891903, -0.21705477326428177, -0.16534668008711662, 0.19231457296749171, 0.04957073226085926, 0.05443191089552796, 0.17783448828156803, -0.19335618928728163, -0.22228257145140282, 0.210902736551322, 0.13961674856595188, 0.10393284457870848, -0.1506555319480941, 0.015855539381072786, 0.2158747761210471, 0.19775256379981157, -0.24506465448922574, 0.09342934198323297, -0.22036274418995339, 0.17992940517096398, -0.032283237855510204, 0.2091060535706104, -0.030279588783330008, -0.006018067858469422, -0.08615853702235154, 0.15933204491629452, -0.15949643027470417, 0.16845581377305763, 0.10328692320425624, 0.1922335977354774, 0.003150513839701903], [-0.08064784082786747, 0.24011517315971953, -0.1881658425792107, -0.21577623707689864, 0.19698502438737653, 0.18877987041388083, -0.0337189224866661, -0.051567258671901504, 0.022364792665368307, 0.13825489654255263, 0.02443540792523429, 0.10535349598444371, 0.027470920239499482, 0.04368920990345384, 0.09502554002397824, 0.11837420318985609, -0.12265265714444089, -0.19132942704504138, 0.003015227893991361, -0.17488334598235608, 0.003541311757659318, -0.06503438749470733, 0.18466661045530808, 0.07561851170398118, 0.09744483430409107, 0.169014927791343, -0.037869911818666904, -0.15216489502651226, -0.11934113693347585, 0.07160850435485468, 0.1558393141326218, -0.11926875404105824, -0.07191487007166651, 0.146918047245738, -0.07509073532901342, 0.05404247787703335, -0.10709110316260807, -0.09996360826420543, 0.01737175670545524, 0.1823550989565956, 0.0348488158727187, -0.1247705742589076, 0.12887382786354426, 0.09994638169937634, -0.06946395823692504, 0.04646606345766632, 0.17553526376046955, -0.02170770687674264, 0.22445123042826767, -0.036016103453248606, 0.24717014467562168, -0.13928659409905927, -0.01629135856465745, -0.18167104887862606, -0.2323973284906001, -0.05417628253803368, -0.0008272824363533813, 0.04279770689988877, 0.21066140743477277, 0.041124010258999553, -0.06520877791238394, 0.2700622456546074, 0.03152649585274051, -0.017806271098769002], [0.10417898342453438, 0.011996808598409698, 0.1483703919120205, 0.16820007083256458, -0.07954912501488115, 0.014877379270137315, -0.014437701885897087, 0.07751164138032271, 0.2424191100820628, 0.13947226820394484, -0.0992790120486416, -0.16602919706626607, 0.2555422702762501, -0.06360699680559195, -0.08088451873075082, -0.08692512623526984, 0.019485744920040016, 0.19308237330930683, 0.17652397741949866, -0.060167576250522235, -0.020388435154881854, -0.009538509624429634, -0.19200334218972465, -0.21922677240577293, 0.19879911362482117, -0.21158346782950654, -0.1582269729336637, 0.07571147884731314, 0.10216504642594536, -0.09458094413321548, -0.022476360818341305, -0.1344863815675906, 0.1434846880991757, -0.1449636619281549, 0.016263780879574828, 0.207799736538016, 0.10436922619891709, -0.03914750103043215, 0.09892169587808207, 0.2734193788471456, -0.09162805530880842, 0.09803065443793954, -0.22915840865265974, 0.16200591183519172, -0.19415959230462784, -0.0037761499707174963, 0.06414744656649932, 0.009188347549022174, 0.0879415102115607, 0.004989164524101574, 0.09629280308818089, -0.07589664956440942, 0.04567367056541178, 0.10229528533130158, 0.06017892513860823, 0.06516527243173577, 0.07454511815953399, 0.12353233441801845, -0.13978058708868735, -0.02863803996122007, 0.19620064300409884, 0.043087084760346284, 0.16838523978057768, -0.01615546919389388], [-0.17742876211120545, 0.08026063185730481, -0.18272391764347784, 0.1157174396154848, -0.12272324915261985, 0.0183281198963213, 0.23047974205490165, 0.16556161381695267, 0.028059726199865645, 0.18926377820110454, -0.03571244964771154, -0.09655447750888423, -0.1207535004629931, 0.0933764098171619, -0.016142678006210446, 0.012744172716632904, -0.12942263213487698, -0.09647073094992936, 0.0974330315011112, 0.1628933317910101, 0.16239993202609232, -0.22309693333901337, -0.18459179192003472, -0.14219965188174458, -0.03025049155750402, 0.14982849413072652, -0.007062076577168996, -0.04664822074903029, 0.015390154214829544, 0.1714883081793126, 0.16793420856387517, 0.13165282099041087, -0.20058134473538128, -0.19375928808073575, 0.0039721064699190685, 0.07948601458375538, 0.20025752765325247, -0.0561788612633362, -0.07872672060780626, 0.0986977299571409, 0.0954879475348437, 0.025228817701346135, 0.11273449808575607, -0.0790215307147735, 0.18920060767977157, -0.11636805870776443, 0.015063522832843339, 0.21389200912399162, -0.04544907135373575, 0.07809279516647771, -0.1044214632035262, -0.14926554099582956, -0.08050663698943113, 0.14744175008322943, -0.02354168324431633, -0.1477980153462806, -0.03924033651263759, -0.279054167922741, 0.10654417839744494, -0.1415294235842731, 0.07199083304239723, -0.1371063837836511, 0.11159872009917418, 0.0015565439526148133], [-0.21543412756400715, -0.08339647051045865, 0.18443637847557867, -0.1170917670441086, 0.0014491918686955721, -0.033942782882095665, -0.06937519038631265, 0.18396951947204412, 0.12419711823168005, 0.08818546071643774, -0.025878716395254683, 0.1344858778929934, -0.0691358736819844, -0.02282096086944682, -0.01289609778540767, -0.07119322846284618, 0.27485733699123227, -0.10216518559993575, -0.13832511013741733, -0.06167238171897496, 0.1931475076238182, 0.09482007209518888, 0.007012582635130749, -0.2826010030372765, 0.1873644718499028, -0.1680319494201879, 0.19589096210844797, 0.22130634692945786, 0.17468438837533604, 0.13142964314609104, -0.08107087361545207, -0.058935147326249764, -0.024460084888917412, -0.16881591132079907, 0.0861590308653783, 0.13117346748670522, 0.06713810273671061, -0.15265260575635495, -0.1948562388750954, 0.10485331628558278, -0.010299947235570808, -0.09734022857496187, -0.000641705897995753, -0.025811367015933877, 0.11939173900154205, -0.039757472381894816, 0.25599306435398494, -0.0917984884729712, 0.06276158832646556, 0.20690195802947783, -0.07486424677648794, -0.1330664099636093, 0.12435341377346353, -0.033477798268131326, 0.2523717100678857, 0.03862027357611889, 0.20116363756706387, -0.43591880781993575, -0.14951627780682705, 0.054772908115334605, -0.06382723806650872, 0.1631193745479715, -0.05050550938376782, 0.0014079091081714316], [0.07459547492623962, -0.15787500330684667, 0.055086886335419104, 1.0199135903906788e-08, -0.18049767575749776, -9.687627932396519e-20, -0.0839224657318985, -0.08981806536387588, -0.01215383924354922, -0.18537311255077354, -0.1633416591455929, -0.17140471539940316, -0.19278273959603887, 3.108723484592039e-05, -0.21958755574529176, 0.010080861913086115, 0.14037039505510238, -0.10223183193499884, -0.058312842080770165, 0.09598187179571535, 0.10206409564349582, 0.006900260355985366, -0.06627359792149964, 0.10711548293473833, -0.12728560801154984, -0.14130187666872204, 0.16108101524314483, -0.013763228032343902, -0.07105508429683474, -0.10797141067216452, -0.01813183953945522, -0.053757740472385344, 0.08948391771995347, -0.12894839359391913, -0.07145652431848368, 0.1383664436263946, 0.16862920047321736, 0.018528220157282088, -0.0992958643797692, 0.12558281883992392, 0.04441963310519576, -0.06786813656671714, 0.09183248014119812, 0.1555777990388821, 0.048870819493725445, -0.0668688967955906, 0.1153851509512769, 0.2003409031728535, -0.1431218076292094, 0.19559470101815823, 0.1601436441040412, -5.309820199364182e-09, 0.1115210161363791, -0.11550833622159569, -0.2570650530326736, 0.1478220893182408, 0.14004989312282304, -0.02389304783072997, -0.18501336499838658, -0.0710513557771105, 0.2044564894793001, -0.13915719258132747, -0.22866617754365162, 7.022707933465273e-05], [-0.10015837000300612, 0.17739854518567244, 0.07087782944632091, -0.0006790184129137911, -0.0006796411032198191, -1.0468233341160632e-18, -0.010426808916595228, -0.1998878606798462, 0.08284088295750272, -0.10190637155247462, -4.931382080498806e-11, -0.03430942266887335, -7.908475593367073e-05, 0.0004774241597937589, 0.2520636982433232, -0.009790940371292184, -1.8186062976608968e-07, 0.2320582295441585, 0.11767550372397029, 0.057853820299846724, -0.014158240070561214, -0.04317209699659771, 0.1671967579291581, -1.3567853564590442e-21, 0.10250169395338406, -9.179365323727292e-19, 1.7352752920588875e-08, -0.00014006365145341135, -0.06629601784000531, -1.5916370229485925e-05, -0.12954569397028462, -0.12586203681849464, -1.5268288056237065e-22, -0.21072478383292845, 0.0004853076013695873, 0.0027826324042903817, -0.22490034389941563, 7.360508189581688e-10, -0.13873714848497068, -0.1342170569050457, -0.004737735287723774, -0.1390657070844409, -0.2258266962243542, -0.22962428660256406, 6.668420827952845e-08, 0.08988971622379045, 0.04498066032717027, -0.038719937525688544, 0.07901864050558258, -0.11479351370791842, 0.08720451053782906, -2.3027722463326863e-06, -0.034045706488411535, 4.9524989336723075e-05, -0.11596182770815988, 0.01113398783736369, 6.857880878464328e-20, -0.17382954463842504, -7.392177566829884e-14, 0.1443245582375532, 0.24063471182967353, 0.17238147401858356, -0.16409753402305224, -9.674397273896278e-12], [0.21614190987680976, 0.035909866430790804, 0.1119527501027283, 0.11244898429217688, -0.23573293230247838, -0.07197915741913496, 0.05967581399316843, 0.2307274156451386, 0.17635260382159668, 0.004587018429968844, -0.2099712372332712, 0.0385780664191705, -0.014154739430220118, 0.15327359427512613, -0.1177779635918202, -0.12131582985319808, 0.06143721033531309, -0.0005033879073148308, -0.10771814727829275, -0.06909350503577921, 0.0135060798358383, 0.09744892507364146, 0.11727980969384826, 0.2274631264599644, -0.09113445929338623, -0.07138699553005332, -0.16953936551419677, 0.15274201219104114, 0.03860717090183414, 0.11692105246427016, -0.061572732118508944, 0.08581741839425161, -0.2080580707294406, -0.1916052914674448, -0.06760594549196439, -0.2024765913319255, -0.1965416975943647, 0.06914277286186722, -0.09633703198365261, 0.07735091719874716, 0.16251880624667964, 0.1301370013502672, -0.023767850359882246, -0.20324859620494784, 0.25365037948705976, 0.22131801862165063, 0.006643413033387793, -0.07573406975326258, -0.11753397380594946, 0.03281916381828885, -0.03719332683010597, 4.847603838213764e-06, 0.07827126960989861, -0.2268999437062928, -0.04619080170639989, 0.08024847204223139, 0.1210684124850778, 0.10157139176369111, 0.13403502488752325, 0.023668999086299214, 0.016760218655820454, -0.015567535277636543, -0.005135205700174822, 5.019737977066206e-07], [0.008112607717322425, -0.0010844019489383342, -0.05702495223757107, -0.12902372013821514, -0.07246082178648673, -0.2014308061110583, -0.03748336166656428, -0.027537037963305415, -0.16745507052665637, -0.07729553323323986, -0.12964932344709895, -0.04824406075982994, -0.04061361281696335, -0.17179706043348528, 0.08088256987790007, -0.061094902590104264, -0.11944720838971881, 0.06482101309323514, -0.10238833462803364, -0.134541524857603, -0.08049163868602299, -0.05338753353511157, 0.05754247169917192, 0.09558628846796813, -0.20894919887739608, 0.09640221713540063, -0.007592007106264086, 0.1346690595592854, -0.21570986241273274, -0.044339505967045924, -0.264274894208787, 0.12630579791321023, -0.12100063546458217, 0.04309717128645594, -0.11181015627072789, -0.19643588450334026, 0.17519191170207266, 0.029879295783851546, 0.19581612143774238, -0.06507800405631017, 0.09455129331278181, 0.1908453774405843, 0.001679586351019414, 0.15219391033124927, 0.0016190002435955428, -0.05984902985234343, 0.27032671518892665, 0.07879390781299862, -0.08974515027625132, 0.11225133153055093, -0.07835817632597246, 0.0006398784939917268, 0.18471117882408286, 0.14057248458651517, -0.032312575190261594, -0.012807114220031187, -0.052237632907659946, 0.08511809626612724, 0.11972419806399699, 0.08527836999979307, -0.17335881238969778, -0.04031654921668659, -0.046240751077106276, -0.015294662155143829], [0.07557184870558192, -0.08771762165019245, 0.008498164780529291, -0.135976476118367, 0.1705528164483467, -0.08127513222052558, 0.11590451260433617, -0.13637900402700642, 0.07234597392435449, -0.10734662680891731, 0.17852569862660456, -0.013739168029693457, 0.054976219800541945, -0.1420067402756567, 0.15960868734443698, 0.12498772172413843, -0.10509796948674656, 0.19946881123972154, -0.2005884154305696, 0.15368389167148502, 0.018439040794229075, 0.12935247099750632, -0.007864791339679432, -0.2014601493696987, -0.12028156180527907, 0.2135499566178297, -0.0168226744145857, -0.09967193272634355, 0.12623985723146808, -0.23970793348808045, -0.22508113042494757, -0.12430670546691516, -0.18352440598065428, 0.17837595342276027, 0.06763915214665127, -0.007988527524152531, 0.1364432295224185, 0.07801857661523856, -0.13028505670402554, -0.06332247995446036, 0.1325702203012593, -0.07521861052149624, -0.00813636061606618, -0.05885024226369385, -0.16931646807895506, 0.06401452933588522, 0.05257314531773965, 0.08471445110781999, -0.06825216311968724, -0.04931904236526503, -0.1404570039418628, -0.041229205098591674, 0.0716651407328157, 0.1748417270381216, 0.05559766226919352, 0.04642230378911452, 0.004057284248004723, -0.11189407726982814, 0.015248996260343822, -0.16691666907111222, 0.027114609806098318, 0.11544749674153325, 0.177508042821105, -0.016168364752106784], [-0.021881913315409583, -0.1379837599654803, 0.15658390764832827, 0.13203842622176598, 0.10535610619733222, -0.2031185576694004, 0.07540477574471231, -0.0841883638439299, -0.13911908616515928, 0.10335354690061416, -0.11471244205807991, 0.0246233570088973, 0.0662858044481099, -0.143266393044436, 0.0025127195409379733, -0.19467209095918092, -0.11948309161882938, 0.16994316168652687, -0.08613953522635964, 0.20441880850085123, 0.020110387516036433, -0.04566543727518529, -0.05436524746112033, -0.28476104719888157, -0.08215097378868542, 0.03622129522824813, 0.09899803544911989, 0.0759713884228305, 0.10064993078873732, -0.19711073541385077, 0.07356347591111136, 0.1469669239943462, -0.14824344351215152, -0.15030569843688987, 0.09319277463344111, 0.13934651588892077, -0.10224965571539592, -0.058447231857362454, 0.06633288549407348, 0.028247824015467857, 0.061500024809792976, -0.00891719156414197, 0.1259705647985025, 0.1472948596591023, 0.16261264083441473, 0.03855112704882593, 0.07841890055301344, 0.0554869285292592, -0.1919708382394691, -0.09485741243150082, -0.19096610595951552, -0.04070817533304356, 0.14767233715640488, 0.02379222585565352, 0.0640890615352289, -0.10522657666262698, -0.07989628118581557, -0.12963134044411215, 0.1544408906421443, -0.12101148796378648, 0.05930340645612102, -0.11257812822187747, -0.1845375783010946, -0.015573715540879442], [-0.06865148344642039, -0.06121588210234892, 0.028263946818789354, -0.092171880009159, 0.09354616874043765, -0.17066766160278637, -0.032647346516890066, 0.08042348516167105, 0.07183337557819987, -0.18818986138466878, -0.04787308154877429, -0.0688525878881894, 0.004977111266255121, -0.1710100597694565, 0.07834348912776513, 0.028298037787619953, 0.00526488736814889, 0.1241714116825914, -0.17292177214457316, -0.13090542561457297, -0.20109195717178516, 0.1329539299762802, 0.07016386742051028, -0.11489810941383251, -0.17594101854904556, -0.1961315687150023, -0.02688411464967235, 0.09384196242115263, 0.07170116212291447, 0.02801786887857248, 0.19165326249971978, 0.0037931169086102244, -0.27350651622421407, -0.06973142905409004, -0.19021809986043228, -0.07661547287142767, 0.2140795388983859, 0.15548776602998082, -0.09625995095684077, 0.015236947535379606, -0.04119407513686083, 0.11751790914140682, -0.16665463053830756, -0.2127293034952823, -0.14705645343810636, 0.08981381959708118, 0.018659264191711527, 0.22654528246921285, -0.08894479516438714, -0.0021208882235658963, 0.09334829180810451, 0.005684536268176915, -0.10095879792387659, -0.17431382400028161, -0.027623202459591073, -0.13329063777572817, 0.2110522135304782, -0.001967443298456646, -0.13732453013678725, 0.06740839635356756, -0.15943939904688972, 0.14310709644762618, -0.04291825353078572, -0.011499018214682325], [-0.24988042823215098, 0.2233417120345361, -0.11284156837853138, 0.18277210481434625, 0.00971071919892313, 0.006747604843668351, -0.14668113817037398, 0.15247715718134863, 0.12099886280835885, -0.021609547592410194, -0.16523613435181259, -0.11878787409335871, -0.07501353440858605, -0.07019787896933899, 0.021741956617703118, -0.12753468126457915, -0.11284299900200645, 0.07317861159902991, -0.1596306970115729, -0.18714076313554526, -0.008909520989615111, -0.21254652708082483, -0.007085164349425659, -0.21952884942785056, -0.12537897557950536, -0.028004203357480235, -0.1314341462457097, 0.046923469135330735, -0.04879240321174469, 0.14581124376007037, 0.21293476690532007, -0.04560223676290905, -0.09871034138699765, -0.005697594619125803, -0.15628253260952907, -0.06745915813078958, -0.18298754690029723, -0.09291417143671264, -0.1230749805458507, 0.08670308955575276, 0.060983696602324985, 0.23610083024280396, -0.09220701676022852, -0.14796181584228832, 0.22126910069713898, 0.2223793553457868, 0.07716396588991184, 0.20782241827598594, -0.12446699014136522, 0.15867517355498034, 0.22034522361024486, -0.11814230032356486, -0.024456870050943772, 0.1658164114079552, 0.03114425369141624, 0.05150807367792529, 0.059682258955838306, -0.1370577725476901, 0.1815456301979099, -0.05035659792818233, -0.08778645646383533, 0.11045622917097546, 0.014626829236618245, 0.0044361464806898275], [-0.04957160463228255, -0.08960105789453011, -0.22333376075536962, -2.1020952481546436e-14, -0.004471445348928978, -7.377575464852886e-07, -0.07466224751576031, -0.2661835858551816, 0.12048124927235303, -0.1273050723513038, -0.1255663103659168, -0.2502966536249776, -0.1956181172715192, 0.0018018625653931108, -0.08344399370997993, 0.21926608312080284, -0.15873271570406378, -4.424032556307744e-05, 0.22326040236056402, -0.057416012660836124, -0.005544599359667938, 0.06607876759884183, -0.12511733553554666, 0.14823693591901332, 0.15142031993515567, -0.16751853821950546, 0.17676514599281098, 0.18759152989984834, -0.012045127327196169, 0.02597494353694162, 0.1510539401661184, -0.09510317256379064, 0.04937850176151571, -0.02824447579840341, -0.033137184780154885, 0.1895719952621959, 0.13454476679044525, 0.09058176140092997, 0.1622647817044892, -0.08624416480083932, 0.052986712838135865, 0.09924950528830583, -0.05986425960201092, -0.07823321555072446, -0.0241360309818858, -0.10238761810076606, -0.16695095568376123, -0.05151697928902315, 0.006144439928581408, -0.15831700843964697, 0.014558376801686677, 4.225425252543656e-22, -0.12403831748762399, -0.20836268428212412, -0.014908297067300923, 0.17190051348720647, 0.11595776232501144, -0.18255796860837792, 0.0689034390605121, -0.046977609878915506, -0.1488538831571586, 0.057128038982809326, -0.16847066985145726, 0.0014497691379828106]]}, {"model": 0, "layer": 1, "weights": [[-0.08840723024873871, 0.15909495314130498, 0.01970579492244059, 0.011773500356894014, -0.10116765993256979, -0.17118343151444276, 0.24800030409519885, 0.019638173799671726, -0.1387301296443956, 0.16586050629818913, -0.0305169479753397, -0.15934301471093487, 0.15814376552680287, -0.22010777030342954, 0.0028981340377946508, 0.11607630088339752, 0.21664084184177537, -0.09699360218980105, -0.11728154175586947, 0.21428253227508656, 0.153739100978812, -0.012023120910208265, 0.2601124796631952, -0.009087824286441724, -0.04328077945128168, -0.15664795168689377, -0.050851918082077195, -0.14532401057348593, 0.02815908783119043, -0.03835571841727372, 0.09417604101250295, 0.14984919531923768], [-0.0857653866389657, 0.16262919016566488, 0.09053414978038529, -0.023743427011938097, -0.09052784792730682, -0.015245462837956303, -0.07664224051447548, -0.01830727352158676, 0.03341141234181126, -0.10723241878408317, -0.12611390798172473, 0.16383595488207234, -0.09023633054337231, 0.151747956348736, 0.21699486677162544, -0.0904682509743431, 0.18238360932463488, -0.12048161149554537, 0.2420199079683755, 0.196282319756511, 0.06504467625825658, -0.1629475766735909, -0.1256922002723883, 0.303901639725091, -0.04658119350280251, 0.024949772300426377, -0.12071561641159602, -0.09881727710012095, 0.19099445267994444, 0.20753086836078388, 0.15819423368495883, 0.23277003247307151], [-0.15778979531647597, 0.02015224138897318, 0.0761654618134959, 0.08394531142818024, 0.14034208923099667, -0.09973008000341112, 0.18401003720428125, -0.11182921504896594, -0.11776556881306964, -0.0357138350374491, 0.10789780541018924, -0.08212270205182615, 0.2624120801838591, -0.05014374370520106, -0.21184025371927562, 0.19614134484309462, 0.22679707770659302, -0.08840181973026212, 0.0013454338770051391, 0.10002037072654514, 0.16045579016782682, -0.16186183947011923, 0.15933994633057807, 0.0912957173920263, -0.2430321625937055, 0.024929552174114206, -0.27382994905010943, 0.11882133683139719, 0.08715231265343268, 0.053073177377859784, 0.23994622110888159, -0.07882493964355809], [0.07602743056599601, 0.006271201646043233, 0.09362032279793311, 0.14550807008519948, 0.11973954724024037, 2.135261700210935e-05, 0.08382800000485358, 0.04565765555632513, 0.0005654546021412486, 0.20622932369708855, -0.10532398072218942, 0.0017578757950756497, 0.12368332961577885, 0.037087832959388466, 2.2061393218953006e-22, -0.11758145058661926, -0.003134946999045121, -0.0009237075184391435, 0.012634158622135681, 0.15723168177618674, -0.17894957172442627, -0.09393448933050741, 0.0639785851571748, -0.051594741335886506, 4.261623516667808e-07, 0.0012312459498170691, -0.019372074886639005, 0.024056061610194888, -0.1937993167716291, -0.16133242526662192, -0.24096356580563547, -0.0027580368648311743], [0.2514629957430018, -0.18508163573845374, 0.06274042986705251, -0.07956691384084591, 0.17545884527442474, -0.07804213919480091, 0.06987742780237635, -0.16573461832539177, -3.023535140999633e-20, 0.11946694022597329, 0.1424374824228538, -0.1656277319043639, 0.07127666603502159, -0.18461657003513032, -0.24591813563505163, 0.1827787077480228, 0.2355021079707707, 0.024812657226881217, -0.20360409363955212, -0.1851202188475191, -0.06343156971107661, -0.06316387338005387, -0.2635156044359724, 0.17752162809319283, -0.02047253105218262, 0.23333494455391013, 0.10045609210909107, -0.026411635709278684, 0.03307878083077957, -0.10386874600961324, 0.01597689683479427, -0.21754742028810364], [0.04005313486012162, -0.21538997817343503, -0.0372432013861414, -0.09979212275099743, 0.16025698324207976, 2.381671198746005e-14, 0.19065912238255808, -3.7700803254774945e-05, 0.0008656851856875369, 0.04486271137242082, -0.00029315145046046186, 0.01673623976370083, -0.11702258441435653, 0.10398259513711773, 2.8081189577556806e-10, -0.2020996202900494, -0.05314676342190304, 0.18328932775872944, -0.035531327447848426, 0.11338893355938376, -0.1847338442438174, 0.0002125110579773706, -0.007479075162739014, 0.21152148630883935, -4.4838965127882827e-20, 0.14719320444363013, 0.0017617395135377453, 1.0641509041790196e-05, 0.02801912500044736, -0.07051597737572653, -0.21822740168647242, -4.588335237112517e-18], [-0.03012270895369136, 0.07806822123866768, -0.2642358860552431, 0.25968794373536364, -0.1469804803668729, 0.00034301298144307933, 0.1009460747339214, 0.005978080041341929, -1.0078172268312323e-06, -0.1655164199841451, 0.08141811643922969, -0.03364262362673944, 0.14466443973314957, 0.19866914868748442, -0.04717736273781128, 0.10875616573378774, 0.005936039694225467, -0.21036869673498423, 0.16033540331257626, 0.055676263760550744, -0.24563929379299085, 0.04724762976313218, -0.22878159783597904, 0.09027315509783052, 0.11819417494700829, -0.05444876501367167, 0.2306729089622789, 0.20463987952238108, 0.20388049792372426, 0.1615235535035501, -0.09601593962045477, -0.3281457445006969], [-0.2722792247539291, -0.11242238798653298, -0.15276292005967662, 0.040773924274031245, 0.034898573874860124, -0.07417896157467427, 0.16074172308241597, 0.20601652029139597, 0.08586404746138133, -0.02207334441310824, -0.1419789344553292, -0.09274232682253206, 0.014038181942327269, -0.05897446833503476, -0.24439657389061065, 0.03537786860901829, -0.07440080702119987, -0.19373688466236672, -0.010807416842826238, 0.28133537949672577, -0.24114542762747543, -0.259708303695339, 0.05097512063658425, 0.05476254338531664, -0.19816612972629732, -0.23083533740769704, 0.13377762820215133, 0.05816020929157861, -0.12295394583988165, -0.17858255745894536, 0.08079883351287483, -0.06444187798698883], [-0.21029918349073376, 0.054681909878829656, -0.24264833584299889, -0.1979539584531708, -0.14084931392512612, -0.19822713130413872, 0.1218040526578021, -0.12910427021987775, -0.1820400044848045, -0.05213235751831126, -0.1161448665571784, 0.12211280070326026, 0.007238066595254866, 0.19134352332954951, -0.23088792035274625, 0.21863399477146436, -0.1895018252608531, 0.21439663738511597, -0.10438111241784517, 0.05112579517032192, -0.23847921662340343, 0.1388978567849881, -0.1362283855275739, 0.19900411129704998, 0.06413790325190258, -0.12658701413878237, -0.15192655693431908, -0.10972409316108317, 0.18370419518475983, -0.04460378354346398, -0.05749809102167658, 0.251644058303978], [0.22131528989661775, 0.08906503739516872, 0.1351026926327193, -0.19591420498257167, 0.16232773656136687, -0.09883733056918623, 0.06717917311775035, 0.33303319365363393, 0.13153850386396548, 0.029428530445813363, 0.12109752752793321, -0.016308001658008893, -0.1354281264711378, -0.2665404477099362, 0.0793021406390977, -0.17158972101923486, -0.09274891342646495, 0.049819355960263136, 0.1836544531485523, 0.07691543608763407, -0.14834887483390305, -0.012619319331014905, 0.08274275662118806, -0.16073965127325707, 0.09753741486868887, 0.11819204298431724, -0.003233380182753854, 0.2240126033554959, -0.055904398180502204, 0.007535997892795597, 0.1703467325419969, 0.06507831388260608], [0.2777660446794769, -0.073771113848712, 0.01579054403560554, -0.07982480405980907, 0.035201823206683844, -0.002318891161831866, 0.061813967687854396, -0.015887792920062028, 0.109859842680177, 0.1265246204986281, -0.25923787210707283, 0.26721168729506717, -0.045719544323364954, -0.0384654579833455, 0.18072269662893145, 0.2059425602240915, 0.009747880892639227, 0.05421606871781531, -0.09564540361747294, 0.05843555440790976, -0.06136025703310502, 0.1277433770088052, -0.05492599988515185, 0.07744248198259374, 0.122027412871869, 0.0011506842746928274, -0.10479628691949758, -0.00432229901905529, -0.32841359727599706, -0.1678335933666012, 0.17014988396879246, 0.08527325794468872], [-0.2229132278000936, 0.15549491068459217, -0.24425209274875553, -0.024373607469292603, -0.18928085998456556, 0.1559941358424117, 0.1314849125403487, -0.22846421948209056, 0.06475594077811415, 0.17129156686420305, 0.234758572996697, -0.30579088378369584, 0.0012725068387508358, 0.1172326418673903, 0.059374377606969043, 0.11911546851544967, -0.06552275766549608, -0.012426270509420929, -0.1898675128905843, -0.06273960001606169, 0.009878441760535891, -0.2378738078973705, -0.14139049676735516, -0.20255492694912883, 0.02858410693329527, -0.17971468277122127, -0.05528834983189449, 0.20541824107951995, -0.002098846905350814, -0.012202349560522862, 0.2816323533852821, -0.038879561432839285], [0.3541915794257065, 0.08951811337946904, -0.15591344123217546, -0.08192040574678659, 0.2800307537356288, 1.5818222967340791e-18, -0.2088189696295542, -0.06337164663456746, -2.547745069117719e-06, -0.149168777330607, -0.2559713914546416, 0.10714877049513181, -0.006808434023924062, -0.11313185806976866, 0.018284744933657015, 0.27076849478340714, -0.3639649468101224, -0.11027830350805097, -0.07253389927712202, 0.1334744956340793, 0.19687914183682267, -0.11498517779582498, 0.20436959336174057, -0.04459845192207503, 0.1178504982590737, 0.17672601250105655, -0.28651425184961776, -0.06290930031717022, -0.08024543317032157, 0.14023491461486373, 0.1567944315098213, 0.016465517072191755], [-0.19402576274320565, -0.044037210195688355, 0.2018335917023561, -0.037146270366950604, 0.16538876549271048, -0.00035650091018292446, -0.09959119827170931, -0.006059154618729296, 1.2600184875515619e-13, -0.02092208484065094, 0.03219509973670046, 0.1431654866413711, 0.15602986944749683, -0.02847719487727812, 0.06021646111923629, -0.041882930990587965, 0.20135209243530902, -0.01569595138655175, -0.03067284184166891, 0.2365860476051985, -0.22296425522912944, -0.06523297701740928, 0.1625688381067079, -0.0330867636735459, -0.06395796928236742, 0.03743692715084958, -1.0690461352028672e-15, 0.06604430299739865, -0.13016916940460233, -0.08675975345456438, 0.23268195472201125, 0.21090823688715535], [-0.2957720935209304, 0.21287135343126443, 0.07898575484255815, 0.04127968856626133, -0.18307125174955982, -0.1296475607123335, 0.1437828069486497, 0.08643500551172091, -0.24464063487093948, -0.0048797824231841674, 0.2398058435865819, 0.17796821233354784, 0.21076513218252715, -0.033020989585446026, -0.029023856323991286, -0.12179598081487245, 0.18666845989058883, 0.19109835388589688, 0.1633229758826946, -0.13381604115102813, -0.18207303886048085, 0.04548254621355514, 0.21703502550758644, 0.22699117394676532, 0.024571794481345693, 0.05356054539136693, -0.21891720906844095, -0.03469778025957213, 0.04693890870381274, 0.1757090135952673, -0.009849321807782259, 0.0724686437580778], [-0.3111890781565964, 0.3319947624183201, -0.0007001729574575583, -0.1765012384293298, -0.0754731513171051, -0.007184835541099167, -0.10848349018663889, -0.09848016885080793, 0.1995938562274103, 0.1630471444477238, -0.16918335906567925, -0.21641924737404672, 0.11472483458695454, -0.2248721750372483, -0.25956993469899675, 0.09295442553782567, -0.09811282617131623, -0.042544810043955515, -0.14116324507896943, -0.23281060275478993, -0.16320444364236436, -0.13419573837866916, 0.2488137706323868, 0.17360020817319138, 0.2053872249982509, -0.013237650025651934, -0.12492070957339121, -0.19071872100150133, 